<?xml version="1.0"?>
<opencv_storage>
<opencv_ml_lr>
  <format>3</format>
  <classifier>"Logisitic Regression Classifier"</classifier>
  <alpha>1.0000000000000000e-02</alpha>
  <iterations>300</iterations>
  <norm>1</norm>
  <train_method>0</train_method>
  <learnt_thetas type_id="opencv-matrix">
    <rows>10</rows>
    <cols>785</cols>
    <dt>f</dt>
    <data>
      -2.28579324e-06 0. 0. 0. 0. 0. 0. 0. 0. 0. 0. 0. 0.
      -1.23093775e-08 -4.79645443e-08 -2.33815047e-08 -9.74229253e-10 0.
      0. 0. 0. 0. 0. 0. 0. 0. 0. 0. 0. 0. 0. 0. 0. -1.48545909e-09
      -5.32877387e-09 -6.77377088e-08 -1.67948116e-07 -3.15551802e-07
      -4.65813912e-07 -8.10873871e-07 -9.15821431e-07 -8.48519846e-07
      -9.60038847e-07 -1.27934322e-06 -1.13484521e-06 -1.14203056e-06
      -8.97380858e-07 -5.73644968e-07 -4.19349220e-07 -3.11123870e-07
      -1.12482986e-07 -5.01241075e-08 -1.80517237e-08 0. 0. 0. 0. 0. 0.
      -4.41118342e-09 1.38294531e-08 -3.14223634e-08 -3.41587842e-08
      -3.13595564e-07 -8.51845584e-07 -1.80809423e-06 -3.61164916e-06
      -5.96243990e-06 -8.20055084e-06 -1.15153398e-05 -1.49124289e-05
      -1.93587894e-05 -2.21993323e-05 -2.29235120e-05 -2.07042685e-05
      -1.70357998e-05 -1.23925065e-05 -7.30513784e-06 -3.72699310e-06
      -1.82810481e-06 -6.11638086e-07 -1.93449765e-07 -3.40462556e-08 0.
      0. 0. 0. -1.24298305e-08 1.26081385e-08 -4.59963942e-08
      -3.42615323e-07 -1.34216850e-06 -3.35226832e-06 -6.74617286e-06
      -1.31873503e-05 -2.09779209e-05 -2.86826162e-05 -3.70126836e-05
      -4.64071163e-05 -5.72341050e-05 -6.25082030e-05 -6.12915901e-05
      -5.74159785e-05 -4.79821865e-05 -3.38984391e-05 -2.02976607e-05
      -1.16681585e-05 -5.97062308e-06 -2.40086388e-06 -8.83387656e-07
      -1.22737660e-07 -1.51667248e-08 0. 0. -2.29332930e-09
      -2.44344704e-08 1.08584430e-08 -5.14563567e-07 -2.46350601e-06
      -6.02872115e-06 -1.30530880e-05 -2.40124118e-05 -3.85862222e-05
      -5.50899167e-05 -6.75053161e-05 -7.30457687e-05 -7.11617467e-05
      -6.41771767e-05 -4.51502019e-05 -3.05687499e-05 -2.10285834e-05
      -1.61111839e-05 -1.49828065e-05 -1.71736028e-05 -1.71810334e-05
      -1.45339563e-05 -1.07594269e-05 -5.26719214e-06 -1.31235277e-06
      -2.07512997e-07 -1.50968500e-08 0. 0. -6.51718111e-08
      -2.37038876e-07 -2.22793028e-06 -7.98084693e-06 -1.82202893e-05
      -3.50902374e-05 -5.78206018e-05 -8.03544754e-05 -9.58068340e-05
      -9.99638360e-05 -9.31724644e-05 -7.04854901e-05 -4.18753916e-05
      -8.71416978e-06 2.08672773e-05 3.26646659e-05 2.89181135e-05
      1.38445585e-05 -1.02018003e-05 -2.34724575e-05 -3.06889451e-05
      -2.93635858e-05 -1.78358459e-05 -5.81029963e-06 -1.05567392e-06
      -4.83704312e-08 0. -9.31861255e-10 -1.91355170e-07 -1.43161037e-06
      -5.97219287e-06 -1.58644525e-05 -3.43327156e-05 -6.10967618e-05
      -8.87269343e-05 -1.09649671e-04 -1.12452857e-04 -9.88795218e-05
      -7.71429404e-05 -5.39872308e-05 -3.45129338e-05 -9.84265716e-06
      2.01628045e-05 5.02322109e-05 6.25688408e-05 4.97985930e-05
      2.53392227e-05 -3.11994131e-06 -2.49696677e-05 -3.79238518e-05
      -3.09539973e-05 -1.27544336e-05 -2.73002820e-06 -1.96137194e-07
      -3.16678594e-09 -1.18293656e-07 -8.97247105e-07 -3.78037771e-06
      -1.27558606e-05 -2.83814588e-05 -5.42371563e-05 -8.37851403e-05
      -1.07800355e-04 -1.14750641e-04 -1.05523075e-04 -8.33882805e-05
      -6.26404290e-05 -5.42419984e-05 -4.92075342e-05 -4.35242728e-05
      -2.27132987e-05 1.58638577e-05 5.37721753e-05 6.88498476e-05
      6.02366454e-05 3.33713215e-05 3.81547443e-06 -2.67826817e-05
      -3.43850552e-05 -1.75901223e-05 -3.71046826e-06 -1.06972713e-07
      2.57308219e-08 -3.54333395e-07 -2.66860229e-06 -8.95374433e-06
      -2.24146443e-05 -4.21826880e-05 -6.83717881e-05 -9.35909266e-05
      -1.06982297e-04 -1.04853789e-04 -8.92277167e-05 -6.72190945e-05
      -4.92486615e-05 -5.01071518e-05 -6.48460700e-05 -8.03125440e-05
      -8.05925447e-05 -5.90441596e-05 -3.01696718e-06 6.18142221e-05
      9.77685850e-05 8.56436309e-05 5.25362993e-05 7.14433372e-06
      -2.43400791e-05 -1.80260467e-05 -3.46506044e-06 -1.88339769e-07
      -3.80229075e-08 -6.19793468e-07 -4.14883789e-06 -1.23783730e-05
      -2.75247967e-05 -4.80719209e-05 -6.84045008e-05 -8.05948584e-05
      -8.44963433e-05 -7.32221597e-05 -5.49276556e-05 -3.45377048e-05
      -1.82618132e-05 -2.85497335e-05 -7.41624972e-05 -1.27261417e-04
      -1.62464232e-04 -1.54735870e-04 -8.27814947e-05 3.04774403e-05
      1.20331053e-04 1.46326653e-04 1.19133052e-04 5.68471369e-05
      -2.66336360e-06 -1.27612493e-05 -2.59204194e-06 -2.09964114e-07
      -5.79705244e-08 -8.94563243e-07 -4.29294960e-06 -1.26060158e-05
      -2.72830057e-05 -4.15069226e-05 -4.89487029e-05 -4.49733052e-05
      -3.83659462e-05 -2.43836839e-05 -1.00361804e-05 7.60309922e-06
      4.71076191e-06 -3.76001299e-05 -1.20557510e-04 -2.07622841e-04
      -2.55385559e-04 -2.50521698e-04 -1.65170262e-04 -1.44212754e-05
      1.34237547e-04 2.01004746e-04 1.87679281e-04 1.10628185e-04
      2.12610830e-05 -7.06900664e-06 -1.67904409e-06 -1.12925363e-07
      -5.53509949e-08 -7.34767127e-07 -3.67750090e-06 -1.03934835e-05
      -2.24625455e-05 -2.54120150e-05 -1.29447553e-05 6.36088907e-06
      1.56742117e-05 2.04352182e-05 2.15054497e-05 8.85691043e-06
      -3.33932730e-05 -1.12342037e-04 -2.29493307e-04 -3.15549347e-04
      -3.50935850e-04 -3.39055987e-04 -2.43064293e-04 -5.48578537e-05
      1.37961644e-04 2.41337795e-04 2.33943254e-04 1.50090142e-04
      4.09024178e-05 -2.62744743e-06 -6.97282815e-07 -6.98815441e-08
      -2.60003397e-08 -4.24843194e-07 -2.28555155e-06 -7.57518137e-06
      -1.60072159e-05 -2.03232867e-06 3.11720287e-05 5.69578297e-05
      5.92364413e-05 4.67888094e-05 1.56538263e-05 -4.62369680e-05
      -1.24189261e-04 -2.42620270e-04 -3.72437557e-04 -4.38271381e-04
      -4.56676324e-04 -4.33334586e-04 -3.08561575e-04 -8.77720740e-05
      1.34934206e-04 2.56007828e-04 2.53885839e-04 1.69738458e-04
      5.27801785e-05 -5.33933246e-07 -3.94942248e-07 -7.86746099e-08
      -3.68799280e-09 -1.21162614e-07 -1.10426538e-06 -5.42306407e-06
      -8.71159227e-06 2.79969754e-05 7.53242130e-05 1.05511288e-04
      9.60933903e-05 5.67431489e-05 -2.14532702e-05 -1.27138788e-04
      -2.41621980e-04 -3.87427688e-04 -4.99773538e-04 -5.45045943e-04
      -5.44301118e-04 -5.03234041e-04 -3.48326430e-04 -1.03715065e-04
      1.31095774e-04 2.52848287e-04 2.48287950e-04 1.66836675e-04
      5.51203775e-05 -5.73668387e-07 -5.52483982e-07 -1.13795764e-07
      -1.77548536e-08 -7.38151016e-08 -5.55848203e-07 -4.46004333e-06
      6.22739719e-07 6.12554359e-05 1.19340817e-04 1.52095570e-04
      1.29388340e-04 5.29939061e-05 -6.95163471e-05 -2.10837563e-04
      -3.44460044e-04 -4.92044725e-04 -5.83485991e-04 -6.08593284e-04
      -5.81375789e-04 -5.12554368e-04 -3.33466101e-04 -8.59937427e-05
      1.29883891e-04 2.32764971e-04 2.19703681e-04 1.47414758e-04
      5.17790322e-05 -1.37794575e-06 -6.19185812e-07 -1.63971539e-08
      -6.96082036e-09 -3.68724322e-08 -3.98758402e-07 -4.68547205e-06
      1.29991759e-05 9.46452565e-05 1.59406787e-04 1.89796323e-04
      1.53179208e-04 4.20409560e-05 -1.16199728e-04 -2.76232633e-04
      -4.11791843e-04 -5.44203736e-04 -6.14385412e-04 -6.08451723e-04
      -5.52297279e-04 -4.51977539e-04 -2.59897031e-04 -3.69228801e-05
      1.31962093e-04 1.98314330e-04 1.80239600e-04 1.18844058e-04
      4.00694807e-05 -3.20906270e-06 -8.83655105e-07 -7.50181499e-08
      -6.55591759e-09 -2.61725805e-08 -5.42059752e-07 -5.20109324e-06
      2.28130339e-05 1.20603792e-04 1.91204570e-04 2.18882677e-04
      1.69336883e-04 3.23757849e-05 -1.41198092e-04 -2.99058069e-04
      -4.23458085e-04 -5.26932301e-04 -5.77862258e-04 -5.49035554e-04
      -4.69874038e-04 -3.37658363e-04 -1.53868910e-04 2.23313782e-05
      1.31311288e-04 1.62178971e-04 1.35593189e-04 8.30081408e-05
      2.34600884e-05 -4.85950750e-06 -1.20447248e-06 -8.77531434e-08 0.
      -3.57604542e-08 -8.33522165e-07 -6.94011760e-06 2.93596058e-05
      1.34204878e-04 2.08589205e-04 2.39591784e-04 1.86902689e-04
      4.62330827e-05 -1.30478322e-04 -2.77275802e-04 -3.75755684e-04
      -4.57139307e-04 -4.92075924e-04 -4.47396305e-04 -3.46078072e-04
      -2.05517776e-04 -5.88553885e-05 5.60468834e-05 1.14178511e-04
      1.17322612e-04 9.01567182e-05 4.52401582e-05 7.64636479e-06
      -5.72287581e-06 -1.12229372e-06 1.57514872e-08 -1.03486695e-08
      -2.68800324e-08 -1.19628589e-06 -1.01878031e-05 2.64386290e-05
      1.25192426e-04 2.02589959e-04 2.44147028e-04 2.05791599e-04
      7.39056486e-05 -9.42423430e-05 -2.27037963e-04 -3.10917210e-04
      -3.71961331e-04 -3.83514300e-04 -3.23349115e-04 -2.20532922e-04
      -1.06259387e-04 -8.82925269e-06 5.65499358e-05 7.63437347e-05
      6.66439737e-05 4.26751685e-05 1.21170824e-05 -4.26429415e-06
      -5.49997458e-06 -8.56294321e-07 -1.19570714e-07 -1.11662224e-09
      -2.27837536e-08 -1.75764319e-06 -1.23637492e-05 1.67249054e-05
      9.88200263e-05 1.73668188e-04 2.22508184e-04 2.03388932e-04
      1.06371626e-04 -3.79005105e-05 -1.58402065e-04 -2.34502950e-04
      -2.75654107e-04 -2.68146250e-04 -2.09254067e-04 -1.23933176e-04
      -4.70849882e-05 5.09461961e-06 2.73390197e-05 2.93315552e-05
      2.09277732e-05 3.50865162e-06 -9.47897206e-06 -1.02159711e-05
      -4.72277952e-06 -8.10048959e-07 -5.95279381e-08 0. 2.05634940e-08
      -1.79775986e-06 -1.26740388e-05 3.55401994e-06 6.24671011e-05
      1.27511055e-04 1.77619411e-04 1.85942423e-04 1.38108226e-04
      4.13732196e-05 -5.95369129e-05 -1.32664296e-04 -1.72132291e-04
      -1.65363730e-04 -1.17395844e-04 -6.58377467e-05 -2.86609866e-05
      -1.62836368e-05 -9.56082113e-06 -8.64263984e-06 -1.27872427e-05
      -1.94496097e-05 -1.78700684e-05 -1.01093055e-05 -3.20910908e-06
      -4.20290320e-07 -1.25512116e-08 -2.06202921e-09 -7.94266910e-08
      -1.49234893e-06 -9.45996544e-06 -4.76739706e-06 2.78451025e-05
      7.33872366e-05 1.21129589e-04 1.50466978e-04 1.51083732e-04
      1.08150016e-04 3.91447647e-05 -2.81016419e-05 -7.24836427e-05
      -7.92593855e-05 -6.06880349e-05 -4.67193022e-05 -4.22773810e-05
      -3.80786405e-05 -3.67777757e-05 -3.45890257e-05 -3.19399987e-05
      -2.52395803e-05 -1.51861759e-05 -6.72896795e-06 -1.75593425e-06
      7.09330479e-08 2.30444677e-08 -1.99759098e-09 -6.71552147e-09
      -9.87196017e-07 -5.40561314e-06 -8.98437793e-06 3.40755855e-06
      2.90171374e-05 6.09581621e-05 9.13966505e-05 1.09181768e-04
      1.02196536e-04 7.20576645e-05 3.07234732e-05 -4.09799668e-06
      -3.51026538e-05 -5.41267800e-05 -6.47791749e-05 -6.78191500e-05
      -6.40606158e-05 -5.51767698e-05 -4.64059740e-05 -3.27415582e-05
      -1.96257261e-05 -9.86466239e-06 -3.45886019e-06 -7.19977152e-07
      5.20716270e-08 4.25436255e-08 0. 0. -3.45777352e-07
      -2.18229866e-06 -6.49268486e-06 -8.30416866e-06 -6.64592062e-06
      2.62679168e-06 1.37920961e-05 2.23679544e-05 1.92807238e-05
      5.50291452e-06 -1.98564176e-05 -5.56816995e-05 -8.66937116e-05
      -1.03516097e-04 -1.03574348e-04 -9.32009789e-05 -7.48422171e-05
      -5.68406249e-05 -3.89818088e-05 -2.25191579e-05 -1.16027595e-05
      -4.95018048e-06 -1.41844862e-06 -2.24200420e-07 -3.98563991e-08 0.
      0. 0. -1.12014945e-07 -6.41198142e-07 -2.46686363e-06
      -6.66089272e-06 -1.42454401e-05 -2.70789533e-05 -4.37388517e-05
      -6.47086999e-05 -8.70580043e-05 -1.07303378e-04 -1.20668054e-04
      -1.28256419e-04 -1.27179112e-04 -1.16304647e-04 -1.00160287e-04
      -7.96598761e-05 -5.71897945e-05 -3.74019583e-05 -2.24629657e-05
      -1.25462884e-05 -6.10120696e-06 -2.47594812e-06 -5.86779151e-07
      -5.45875487e-08 -8.07503131e-09 0. 0. 0. -1.02440385e-08
      -1.17236652e-07 -8.47057834e-07 -2.93514495e-06 -8.04037791e-06
      -1.72775726e-05 -3.13088094e-05 -4.80988238e-05 -6.55691911e-05
      -7.75249355e-05 -8.44664319e-05 -8.45911272e-05 -7.79060283e-05
      -6.77683565e-05 -5.72246026e-05 -4.48982719e-05 -3.08873350e-05
      -1.87499136e-05 -1.05418676e-05 -5.70845214e-06 -2.67979226e-06
      -9.82381948e-07 -2.07036337e-07 -1.14421290e-08 -6.92265090e-09 0.
      0. 0. 0. -3.71842934e-09 -2.04491712e-07 -1.08893005e-06
      -3.44453224e-06 -7.30350257e-06 -1.36119288e-05 -1.99215992e-05
      -2.63261318e-05 -3.17726372e-05 -3.45298686e-05 -3.47618479e-05
      -3.25869805e-05 -2.79468950e-05 -2.33980209e-05 -1.80911011e-05
      -1.23305599e-05 -7.13897589e-06 -3.91029926e-06 -2.15043929e-06
      -8.19297554e-07 -1.75632209e-07 -3.79503229e-09 -6.21647800e-09 0.
      0. 0. 0. 0. 0. -1.34238327e-08 -1.13912456e-07 -3.45623221e-07
      -7.10835934e-07 -9.92817832e-07 -1.46542618e-06 -2.33664036e-06
      -3.03127990e-06 -4.15689510e-06 -4.88319483e-06 -5.99267878e-06
      -5.35894833e-06 -4.59266585e-06 -3.58237321e-06 -2.15202749e-06
      -9.02419117e-07 -4.95771985e-07 -2.74050990e-07 -3.26744896e-07
      -5.41881633e-08 0. 0. 0. 0. -7.72391047e-07 0. 0. 0. 0. 0. 0. 0.
      0. 0. 0. 0. 0. -1.25857111e-08 -4.69943906e-08 -2.16285692e-08
      -9.01190178e-10 0. 0. 0. 0. 0. 0. 0. 0. 0. 0. 0. 0. 0. 0. 0. 0.
      -9.12822318e-10 -3.06643222e-09 -2.94988016e-08 -7.82316647e-08
      -2.02991117e-07 -2.91277928e-07 -5.25476594e-07 -6.63388107e-07
      -6.88976286e-07 -7.21180584e-07 -6.01264617e-07 -4.53188193e-07
      -9.14786142e-07 -7.14242844e-07 -4.38974098e-07 -3.62173409e-07
      -2.78381293e-07 -1.03992676e-07 -4.53862405e-08 -1.39779921e-08 0.
      0. 0. 0. 0. 0. -2.11835993e-09 -2.00131711e-09 -2.60279052e-08
      -1.69834795e-08 -1.67511047e-07 -5.70451562e-07 -1.14675174e-06
      -2.22355288e-06 -3.80943288e-06 -5.34888750e-06 -7.30476131e-06
      -8.90192314e-06 -1.09715229e-05 -1.21505145e-05 -1.33358781e-05
      -1.31733041e-05 -1.17918507e-05 -8.86625548e-06 -5.25409769e-06
      -2.78734046e-06 -1.35486766e-06 -4.40814006e-07 -1.51068974e-07
      -3.12899822e-08 0. 0. 0. 0. 1.53734696e-08 -1.02918172e-08
      -4.51688749e-08 -2.74517589e-07 -9.52148866e-07 -2.58818181e-06
      -5.64582251e-06 -1.07005708e-05 -1.73306453e-05 -2.50126377e-05
      -3.16529986e-05 -3.63053405e-05 -4.16712683e-05 -4.52933127e-05
      -4.67254467e-05 -4.49286308e-05 -3.82056605e-05 -2.79819196e-05
      -1.69640243e-05 -9.13095937e-06 -4.21025652e-06 -1.84391786e-06
      -8.28349357e-07 -1.49325814e-07 -2.60872479e-08 0. 0.
      -2.18879537e-09 5.82425592e-08 -4.03526350e-08 -3.33258697e-07
      -1.61447622e-06 -4.57479655e-06 -1.12282542e-05 -2.15927157e-05
      -3.67814755e-05 -5.26232943e-05 -6.32221563e-05 -5.73928264e-05
      -3.85613457e-05 -2.26837728e-05 -2.07545127e-05 -2.39275250e-05
      -1.22274887e-05 1.59721969e-06 1.61944590e-05 1.61177250e-05
      6.62013872e-06 -7.15886927e-07 -3.34555239e-06 -2.94102460e-06
      -1.12710018e-06 -1.76552390e-07 -2.68973519e-08 0. 0.
      1.57184825e-08 -1.27953570e-07 -1.38523239e-06 -5.66829794e-06
      -1.49897141e-05 -3.11362783e-05 -5.53598948e-05 -8.61707231e-05
      -1.14856375e-04 -1.32032583e-04 -1.20874123e-04 -8.18809567e-05
      -4.73558903e-05 -3.70006383e-05 -3.88705957e-05 -2.59070221e-05
      -2.05911920e-06 1.19135193e-05 9.86747546e-06 -4.55435520e-06
      -1.44122387e-05 -1.47950805e-05 -1.01772357e-05 -4.34982940e-06
      -7.40534063e-07 -5.21547001e-08 0. -1.04751730e-09 -1.51681064e-07
      -8.53401161e-07 -4.38704046e-06 -1.33504363e-05 -3.09339339e-05
      -5.90763593e-05 -9.74354189e-05 -1.43103432e-04 -1.85095327e-04
      -2.08698941e-04 -1.97615358e-04 -1.48848296e-04 -1.02408398e-04
      -8.66524861e-05 -8.75876503e-05 -8.03063449e-05 -5.86705064e-05
      -4.85969103e-05 -4.91544633e-05 -5.33030070e-05 -4.80834969e-05
      -3.53717514e-05 -2.14384509e-05 -9.41768303e-06 -2.03769014e-06
      -2.01817002e-07 -2.53539301e-09 -8.98656509e-08 -5.04499155e-07
      -2.54651036e-06 -9.08041238e-06 -2.38276680e-05 -5.03182637e-05
      -8.83901230e-05 -1.37863113e-04 -1.93702712e-04 -2.46730720e-04
      -2.80136301e-04 -2.63726426e-04 -1.95319386e-04 -1.21501907e-04
      -8.52015000e-05 -9.33018018e-05 -1.11190435e-04 -1.25040155e-04
      -1.30833068e-04 -1.27541847e-04 -1.10814537e-04 -8.25191528e-05
      -5.52464880e-05 -3.17871200e-05 -1.38324485e-05 -2.81147186e-06
      -1.94907287e-07 -1.46660071e-08 -2.11985139e-07 -1.45221225e-06
      -5.26823396e-06 -1.46162383e-05 -3.32123491e-05 -6.49823123e-05
      -1.10943445e-04 -1.68359256e-04 -2.32413935e-04 -2.95178092e-04
      -3.29639442e-04 -2.99044186e-04 -1.86792109e-04 -5.68409196e-05
      1.09139173e-05 -2.49140394e-05 -1.01056139e-04 -1.69590596e-04
      -2.01490402e-04 -1.92767824e-04 -1.53227476e-04 -1.05472172e-04
      -6.46579356e-05 -3.55345583e-05 -1.54337577e-05 -2.81731991e-06
      -1.71144151e-07 -3.64149670e-08 -2.99973181e-07 -2.10797180e-06
      -6.71824273e-06 -1.69513987e-05 -3.70834605e-05 -7.17954463e-05
      -1.21140649e-04 -1.84218108e-04 -2.54003011e-04 -3.16964666e-04
      -3.43261985e-04 -2.84156500e-04 -1.17014162e-04 7.47470331e-05
      1.60524010e-04 6.80251978e-05 -9.22611434e-05 -2.05416873e-04
      -2.46994954e-04 -2.21694572e-04 -1.64622528e-04 -1.06406129e-04
      -6.01114407e-05 -2.97761944e-05 -1.17016889e-05 -2.14605257e-06
      -2.19718189e-07 -4.79268358e-08 -3.54920559e-07 -2.08455776e-06
      -6.44680176e-06 -1.58892708e-05 -3.62021310e-05 -7.19801465e-05
      -1.22274083e-04 -1.88880949e-04 -2.60598317e-04 -3.17448255e-04
      -3.29939794e-04 -2.43501578e-04 -2.63296861e-05 2.21366208e-04
      2.95124279e-04 1.11076450e-04 -1.17855969e-04 -2.49472418e-04
      -2.68342876e-04 -2.17731111e-04 -1.49058003e-04 -9.07763097e-05
      -4.76628520e-05 -2.06354998e-05 -6.87521742e-06 -1.35481150e-06
      -8.66286527e-08 -3.58544483e-08 -3.45573000e-07 -1.66536529e-06
      -4.86185399e-06 -1.31043635e-05 -3.32355485e-05 -6.96593124e-05
      -1.23566715e-04 -1.94450142e-04 -2.69313925e-04 -3.19285435e-04
      -3.19971819e-04 -2.17588822e-04 4.74311018e-05 3.37648555e-04
      3.55093245e-04 7.86337259e-05 -1.91103769e-04 -2.94324622e-04
      -2.68367963e-04 -1.92907377e-04 -1.22500423e-04 -7.40883042e-05
      -3.92030670e-05 -1.46753846e-05 -3.28053011e-06 -6.23171331e-07
      8.72702621e-09 -1.62734928e-08 -2.16250100e-07 -1.05139657e-06
      -3.26667896e-06 -1.09407074e-05 -3.22640517e-05 -7.05744897e-05
      -1.29044987e-04 -2.04687400e-04 -2.80945387e-04 -3.29910195e-04
      -3.26579320e-04 -2.13888154e-04 1.05504172e-04 3.92608781e-04
      3.15426703e-04 -3.02466324e-05 -2.95460050e-04 -3.33626755e-04
      -2.57468550e-04 -1.67215927e-04 -1.04238010e-04 -6.56328994e-05
      -3.72308532e-05 -1.40807106e-05 -2.00263844e-06 -4.68983501e-07
      -1.18950710e-10 1.23527979e-08 -8.79952609e-08 -5.41664235e-07
      -2.24021824e-06 -9.95671780e-06 -3.37748897e-05 -7.58139577e-05
      -1.37452051e-04 -2.14434956e-04 -2.91778240e-04 -3.39875201e-04
      -3.34975688e-04 -2.08101017e-04 1.59982359e-04 3.66904744e-04
      2.15622800e-04 -1.76439629e-04 -3.92070360e-04 -3.54993535e-04
      -2.46538169e-04 -1.55989052e-04 -1.00818703e-04 -6.54638279e-05
      -3.99477103e-05 -1.71134470e-05 -2.66487723e-06 -6.10531970e-07
      -1.03369310e-07 -9.06264486e-09 -3.88071371e-08 -2.20984816e-07
      -1.61111257e-06 -9.63936236e-06 -3.76034877e-05 -8.27257900e-05
      -1.44701378e-04 -2.18447545e-04 -2.91592238e-04 -3.37208068e-04
      -3.29659815e-04 -1.65537567e-04 1.98022681e-04 3.07627983e-04
      1.03847517e-04 -3.05761758e-04 -4.38759889e-04 -3.55452357e-04
      -2.45706440e-04 -1.62717610e-04 -1.07888700e-04 -7.13796107e-05
      -4.35865732e-05 -1.89587645e-05 -3.52118150e-06 -6.34325318e-07
      -1.89840001e-08 -3.50686324e-09 -1.74059878e-08 -1.34906571e-07
      -1.80481527e-06 -1.07487986e-05 -4.28227286e-05 -8.93361648e-05
      -1.46604594e-04 -2.13027233e-04 -2.77640589e-04 -3.16562684e-04
      -2.82308261e-04 -7.84317963e-05 2.22409042e-04 2.67688796e-04
      4.78717766e-06 -3.64210078e-04 -4.28689382e-04 -3.39352147e-04
      -2.47230142e-04 -1.73633103e-04 -1.17899552e-04 -7.76882225e-05
      -4.56299131e-05 -2.00884169e-05 -4.86681938e-06 -9.59355930e-07
      -9.47477972e-08 -3.08258041e-09 6.00142425e-09 -2.24295164e-07
      -2.36255664e-06 -1.34480679e-05 -4.86124300e-05 -9.53735653e-05
      -1.45346974e-04 -1.99612768e-04 -2.48624652e-04 -2.62175221e-04
      -1.84811244e-04 2.57277206e-05 2.56003434e-04 2.38578185e-04
      -6.98865115e-05 -3.56517965e-04 -3.88488872e-04 -3.20842053e-04
      -2.46413954e-04 -1.80009869e-04 -1.22764424e-04 -7.96414606e-05
      -4.57490387e-05 -2.06389177e-05 -6.30909381e-06 -1.24548671e-06
      -9.58938884e-08 0. 4.46063559e-08 -4.53979112e-07 -3.54642475e-06
      -1.81951164e-05 -5.59058826e-05 -1.01820762e-04 -1.44428865e-04
      -1.82092132e-04 -2.06561526e-04 -1.78359653e-04 -6.71832604e-05
      1.23814651e-04 2.77845073e-04 1.85498924e-04 -1.07657332e-04
      -3.21916421e-04 -3.52854549e-04 -3.08194925e-04 -2.45537900e-04
      -1.80701187e-04 -1.22760379e-04 -7.79612310e-05 -4.40107287e-05
      -2.05863489e-05 -7.18487854e-06 -1.28110287e-06 -7.13696906e-08
      -1.40460958e-08 -8.01662026e-09 -7.33430852e-07 -5.33603679e-06
      -2.37662371e-05 -6.39545688e-05 -1.11564746e-04 -1.49075640e-04
      -1.69851482e-04 -1.64712867e-04 -1.07779670e-04 1.53584242e-05
      1.61466378e-04 2.36555090e-04 1.08905799e-04 -1.26628584e-04
      -2.97188642e-04 -3.37726233e-04 -3.03654233e-04 -2.40584224e-04
      -1.74434710e-04 -1.18272030e-04 -7.51001862e-05 -4.21356635e-05
      -1.96598248e-05 -6.52040671e-06 -8.64363642e-07 6.03119261e-08
      6.42938280e-09 -1.90759479e-08 -1.13221995e-06 -6.93357288e-06
      -2.74033118e-05 -6.90006345e-05 -1.18031174e-04 -1.55054455e-04
      -1.64817597e-04 -1.37271476e-04 -6.68649955e-05 3.59139522e-05
      1.19194417e-04 1.37003939e-04 2.12512277e-05 -1.50691281e-04
      -2.84877227e-04 -3.27510323e-04 -2.89946620e-04 -2.24002113e-04
      -1.60003139e-04 -1.07099033e-04 -6.58724821e-05 -3.51387971e-05
      -1.58826642e-05 -5.28676355e-06 -8.10431288e-07 4.98808248e-08 0.
      -7.50632623e-08 -1.25410565e-06 -7.69566759e-06 -2.67152318e-05
      -6.38482525e-05 -1.11266963e-04 -1.47583414e-04 -1.53123226e-04
      -1.18680669e-04 -5.77485189e-05 1.27672877e-06 2.78668140e-05
      1.70607782e-05 -5.80443593e-05 -1.71922933e-04 -2.67287163e-04
      -2.96133047e-04 -2.57029664e-04 -1.93004933e-04 -1.33858470e-04
      -8.60276778e-05 -5.03014126e-05 -2.61073765e-05 -1.19321930e-05
      -3.56539363e-06 -5.59443379e-07 1.62541589e-08 1.40979228e-08
      -4.95516765e-08 -1.02686215e-06 -6.01129977e-06 -1.98047874e-05
      -4.60006813e-05 -8.43885646e-05 -1.18011187e-04 -1.21776073e-04
      -9.89399632e-05 -6.72639726e-05 -5.49887009e-05 -6.48579880e-05
      -7.66228186e-05 -1.04265011e-04 -1.62763768e-04 -2.20785674e-04
      -2.36650638e-04 -2.00420967e-04 -1.46008504e-04 -9.66841035e-05
      -5.85009766e-05 -3.30746916e-05 -1.67869748e-05 -7.13586678e-06
      -1.89303125e-06 -1.98389429e-07 -8.75042816e-10 1.36573703e-08
      -9.10395259e-10 -7.23684593e-07 -3.62432365e-06 -1.07793849e-05
      -2.23380430e-05 -4.60810588e-05 -6.73601171e-05 -7.13719273e-05
      -6.65375337e-05 -7.05627244e-05 -9.39777528e-05 -1.15862422e-04
      -1.12486225e-04 -9.72684211e-05 -1.13965594e-04 -1.44421647e-04
      -1.55382033e-04 -1.31485242e-04 -9.25246422e-05 -5.83217225e-05
      -3.39069884e-05 -1.87536007e-05 -9.17694888e-06 -3.50292294e-06
      -5.94977735e-07 9.71296572e-08 -1.61546376e-09 0. 0.
      -2.58120394e-07 -1.65056292e-06 -4.11665542e-06 -6.36660707e-06
      -1.38368296e-05 -2.29544821e-05 -2.48448268e-05 -3.07030605e-05
      -5.78011386e-05 -9.84211802e-05 -1.22101264e-04 -1.10161061e-04
      -7.57539092e-05 -6.56064876e-05 -8.10281272e-05 -9.03516775e-05
      -7.54394205e-05 -4.98790978e-05 -2.93905996e-05 -1.60688905e-05
      -8.43839916e-06 -4.10204120e-06 -1.13905276e-06 -5.34244222e-08
      1.53581738e-07 0. 0. 0. -6.72074663e-08 -5.47988407e-07
      -1.90424043e-06 -3.24761754e-06 -8.94988261e-06 -2.06212790e-05
      -3.74844785e-05 -6.05972491e-05 -9.26017237e-05 -1.23106845e-04
      -1.38445743e-04 -1.28138854e-04 -1.02586484e-04 -8.49376011e-05
      -7.43822093e-05 -6.00561943e-05 -4.12080299e-05 -2.50392059e-05
      -1.41135606e-05 -7.16087425e-06 -3.62603009e-06 -1.51876611e-06
      -4.39128854e-07 -1.72559371e-08 1.45916268e-09 0. 0. 0.
      -5.76132475e-09 -1.03976838e-07 -7.90084698e-07 -2.48390393e-06
      -6.80921494e-06 -1.50183432e-05 -2.77530344e-05 -4.41855736e-05
      -6.19927450e-05 -7.27426304e-05 -7.63987046e-05 -7.38138333e-05
      -6.43273015e-05 -5.44668801e-05 -4.22229132e-05 -3.04807436e-05
      -1.99793922e-05 -1.18482567e-05 -6.25030725e-06 -3.18093907e-06
      -1.50952940e-06 -5.25035830e-07 -1.07161824e-07 -1.13039738e-08
      -8.45986303e-09 0. 0. 0. 0. -6.07747053e-09 -2.29011121e-07
      -9.04601222e-07 -2.70807550e-06 -5.80386859e-06 -1.09762514e-05
      -1.62243396e-05 -2.17208690e-05 -2.63236179e-05 -2.82713445e-05
      -2.79918822e-05 -2.45816555e-05 -1.93043234e-05 -1.50421602e-05
      -1.10406227e-05 -7.27266115e-06 -4.16612284e-06 -2.18336413e-06
      -1.09763789e-06 -4.01316186e-07 -8.48166763e-08 -1.50642598e-09
      -5.23530819e-09 0. 0. 0. 0. 0. 0. -1.33868863e-08 -7.84681120e-08
      -2.22977690e-07 -4.71054364e-07 -5.98559211e-07 -8.55881467e-07
      -1.60916090e-06 -2.01104081e-06 -2.45612136e-06 -2.76959167e-06
      -3.18808361e-06 -2.75076377e-06 -2.28457907e-06 -1.73001138e-06
      -1.03162790e-06 -4.04334855e-07 -2.25845753e-07 -1.19200990e-07
      -1.27307999e-07 -1.93232079e-08 0. 0. 0. 0. -2.12888199e-06 0. 0.
      0. 0. 0. 0. 0. 0. 0. 0. 0. 0. -1.76405930e-08 5.67422802e-08
      1.06127537e-07 4.42198100e-09 0. 0. 0. 0. 0. 0. 0. 0. 0. 0. 0. 0.
      0. 0. 0. 0. -2.08354844e-09 -7.53855822e-09 -1.02031244e-07
      -2.43617734e-07 -2.71273336e-07 -4.60845143e-07 -8.53420204e-07
      -1.16342801e-06 -1.50200947e-06 -1.37303755e-06 -1.20814559e-06
      -1.04176183e-06 -4.63890728e-07 -8.65583218e-07 -8.01973499e-07
      -6.28238126e-07 -4.65381220e-07 -1.75543548e-07 -8.55429292e-08
      -3.22719558e-08 0. 0. 0. 0. 0. 0. -4.26616031e-09 -4.87286567e-09
      -5.87569815e-08 -9.11797660e-09 -1.34798540e-07 -3.23936291e-07
      -8.05286717e-08 2.68165024e-07 -7.95816732e-07 -1.59871968e-06
      -3.86039846e-06 -7.30687498e-06 -1.10701367e-05 -1.41253486e-05
      -1.73723856e-05 -1.81040396e-05 -1.71428092e-05 -1.34286756e-05
      -8.13117731e-06 -4.43709723e-06 -2.26852558e-06 -5.93323875e-07
      1.26502684e-08 7.81749989e-08 0. 0. 0. 0. -8.57883098e-09
      -2.52220858e-08 -4.08926333e-08 5.73328862e-07 2.52449308e-06
      6.87439024e-06 1.59576502e-05 2.98410323e-05 4.33355417e-05
      5.83986694e-05 7.02261823e-05 7.63637145e-05 7.07225336e-05
      6.03194821e-05 4.42915079e-05 2.28959307e-05 4.03135982e-06
      -4.70714849e-06 -7.15190890e-06 -6.86324847e-06 -4.70946270e-06
      -2.51116103e-06 -9.70236556e-07 -7.46424789e-08 -2.23999130e-08 0.
      0. -4.45473258e-09 3.02399483e-09 7.15710491e-10 2.54880888e-07
      3.97004123e-06 1.15997736e-05 2.73848236e-05 5.36223924e-05
      8.82893073e-05 1.24515820e-04 1.62898403e-04 1.90593331e-04
      1.98957772e-04 1.89054670e-04 1.65774894e-04 1.37251714e-04
      8.76330305e-05 4.22391386e-05 9.59496811e-06 -9.22620620e-06
      -1.68471852e-05 -1.67746366e-05 -1.16719139e-05 -5.38340555e-06
      -1.16993340e-06 -1.75561283e-07 -2.44401299e-08 0. 0.
      6.90805102e-09 -1.41332890e-07 7.81879294e-07 8.39752374e-06
      2.53610433e-05 5.54988255e-05 9.54062707e-05 1.36568517e-04
      1.74647663e-04 2.00696551e-04 2.02087176e-04 1.85059980e-04
      1.61348667e-04 1.37243376e-04 1.07285916e-04 7.51813350e-05
      2.97917231e-05 -6.98322583e-06 -2.53599828e-05 -3.35454242e-05
      -3.41654559e-05 -2.95634873e-05 -1.60046602e-05 -4.63209608e-06
      -7.74343505e-07 -4.68496637e-08 0. -1.19399746e-09 -1.33103725e-07
      -7.28786517e-07 3.84834806e-07 1.12152966e-05 3.57691933e-05
      7.17256626e-05 1.05014493e-04 1.29056512e-04 1.39995420e-04
      1.33659458e-04 1.00902376e-04 5.35008912e-05 1.22977781e-05
      -6.63487026e-06 -7.24673282e-06 -8.30988847e-06 -2.04752214e-05
      -3.29206596e-05 -4.18837662e-05 -4.55779773e-05 -4.91361352e-05
      -4.60793453e-05 -2.71719564e-05 -9.75422972e-06 -1.93105484e-06
      -1.73686843e-07 -3.86197696e-09 -1.28544087e-07 -4.60109817e-07
      -2.51326856e-06 -2.14151669e-06 8.94141340e-06 3.33352727e-05
      5.27082630e-05 5.90483905e-05 4.78097936e-05 2.47180851e-05
      -1.16309538e-05 -6.51051523e-05 -1.23537568e-04 -1.60930431e-04
      -1.69137435e-04 -1.42934121e-04 -1.09194458e-04 -8.19081397e-05
      -7.01267709e-05 -6.18380000e-05 -5.70410230e-05 -5.70575030e-05
      -5.73779034e-05 -3.59633996e-05 -1.38831729e-05 -2.69583870e-06
      -1.78766570e-07 -2.39146161e-08 -2.68113155e-07 -1.75294122e-06
      -6.05952118e-06 -8.26002179e-06 6.16966815e-07 1.37221305e-05
      4.84525481e-06 -2.43921950e-05 -7.14785347e-05 -1.19119904e-04
      -1.70717118e-04 -2.18762463e-04 -2.57296953e-04 -2.70311953e-04
      -2.53473961e-04 -2.05319724e-04 -1.43871730e-04 -1.01920217e-04
      -7.98124966e-05 -7.17472431e-05 -6.99722368e-05 -6.61547310e-05
      -6.16257603e-05 -3.93107039e-05 -1.54274639e-05 -2.71567046e-06
      -1.58972583e-07 -3.93261743e-08 -5.19431524e-07 -2.66829375e-06
      -7.71563828e-06 -1.20595369e-05 -1.11330610e-05 -1.97957961e-05
      -5.88285511e-05 -1.22932513e-04 -1.91991057e-04 -2.46495008e-04
      -2.87279778e-04 -3.08857037e-04 -3.12834949e-04 -3.06073081e-04
      -2.71093741e-04 -2.01084345e-04 -1.25440303e-04 -7.79779293e-05
      -5.95557794e-05 -6.55759140e-05 -7.18623050e-05 -6.97955038e-05
      -5.91727985e-05 -3.40259940e-05 -1.19427850e-05 -2.15885666e-06
      -1.98597476e-07 -5.63002871e-08 -6.58391855e-07 -2.75619732e-06
      -7.36626089e-06 -1.51388203e-05 -2.54796778e-05 -5.58545944e-05
      -1.22660000e-04 -2.03955846e-04 -2.80326087e-04 -3.33143456e-04
      -3.52180999e-04 -3.37940466e-04 -3.18106759e-04 -3.04212474e-04
      -2.63690716e-04 -1.71146356e-04 -8.99359584e-05 -4.19925636e-05
      -2.99099120e-05 -4.80319759e-05 -6.67437271e-05 -7.11321991e-05
      -5.40698129e-05 -2.53321195e-05 -7.12553583e-06 -1.22269228e-06
      -1.13678148e-07 -4.87143375e-08 -5.37085214e-07 -2.31047625e-06
      -6.09505923e-06 -1.49522966e-05 -3.88719818e-05 -9.18998703e-05
      -1.75326582e-04 -2.68260483e-04 -3.47166031e-04 -3.90354980e-04
      -3.85799038e-04 -3.44519183e-04 -3.18250910e-04 -3.18036589e-04
      -2.60481058e-04 -1.55096306e-04 -7.67228266e-05 -2.98832620e-05
      -1.25337729e-05 -3.66893182e-05 -6.68922876e-05 -7.68610189e-05
      -5.69150579e-05 -2.12748728e-05 -2.95508130e-06 -6.15981094e-07
      -6.41630322e-08 -2.42746392e-08 -3.05564754e-07 -1.40028203e-06
      -4.78807351e-06 -1.54328864e-05 -5.16334912e-05 -1.20859178e-04
      -2.13086096e-04 -3.06971458e-04 -3.83447041e-04 -4.14593262e-04
      -3.87293490e-04 -3.29364178e-04 -3.20815161e-04 -3.39173479e-04
      -2.74843653e-04 -1.75828769e-04 -9.84143990e-05 -4.49539693e-05
      -2.44207840e-05 -4.75725465e-05 -8.18357221e-05 -8.84942492e-05
      -6.49580252e-05 -2.27435867e-05 -1.33183377e-07 3.36547487e-07
      -1.87729672e-08 -5.80583182e-09 -1.40141921e-07 -7.04267165e-07
      -3.42667227e-06 -1.68665520e-05 -6.22978841e-05 -1.36020200e-04
      -2.25812590e-04 -3.11532087e-04 -3.71575559e-04 -3.74982308e-04
      -3.20766208e-04 -2.67117954e-04 -3.03788926e-04 -3.35948833e-04
      -2.90537981e-04 -1.91915329e-04 -1.24955666e-04 -8.38704218e-05
      -6.42837185e-05 -8.16208776e-05 -1.07793872e-04 -1.01737227e-04
      -6.96597344e-05 -2.44979801e-05 1.59553736e-06 1.53469512e-06
      3.43042927e-07 -1.04414628e-08 -7.53740039e-08 -3.51077404e-07
      -2.61163382e-06 -1.61333173e-05 -6.46459011e-05 -1.29377688e-04
      -1.97967776e-04 -2.56728119e-04 -2.84318259e-04 -2.53689155e-04
      -1.86374629e-04 -1.62171724e-04 -2.43257848e-04 -2.87055067e-04
      -2.51908874e-04 -1.62517055e-04 -1.32949586e-04 -1.11830923e-04
      -1.08785855e-04 -1.22143683e-04 -1.28985703e-04 -1.08868255e-04
      -6.81023375e-05 -2.19622107e-05 3.96064115e-06 2.89898412e-06
      8.45936512e-08 -4.01015043e-09 -4.47723174e-08 -2.97295458e-07
      -1.09216387e-06 -1.01231926e-05 -4.63391407e-05 -8.43480957e-05
      -1.17112897e-04 -1.40980555e-04 -1.37133582e-04 -9.14556222e-05
      -3.64577900e-05 -4.80256713e-05 -1.36723364e-04 -1.88455859e-04
      -1.55010188e-04 -9.62819176e-05 -1.04394639e-04 -1.14697024e-04
      -1.30013897e-04 -1.39185446e-04 -1.27241263e-04 -9.38715311e-05
      -4.86186364e-05 -7.22633922e-06 1.01644628e-05 4.67692234e-06
      4.12610888e-07 -3.37864359e-09 -3.61828185e-08 -2.21578688e-07
      2.20775178e-06 5.76732646e-06 -4.26905353e-06 -3.98488646e-06
      -3.21354742e-06 1.77461925e-06 2.02712126e-05 5.10295504e-05
      7.33018533e-05 4.23963793e-05 -3.55838929e-05 -8.30393692e-05
      -4.70073901e-05 -2.26176544e-05 -5.38755703e-05 -8.81483284e-05
      -1.13428214e-04 -1.11215697e-04 -8.28643460e-05 -4.53831999e-05
      -5.06886545e-06 2.05022388e-05 2.27443179e-05 6.16656234e-06
      4.50846699e-07 0. -5.56617934e-08 -1.71644487e-07 9.12966971e-06
      3.02396238e-05 5.01458453e-05 8.13563092e-05 1.03676641e-04
      1.16033298e-04 1.20618373e-04 1.23169317e-04 1.22091224e-04
      9.13420445e-05 3.11561016e-05 -8.56096790e-07 1.88003669e-05
      1.61771168e-05 -1.71115080e-05 -5.28774617e-05 -6.65359039e-05
      -4.58374125e-05 -9.05935485e-06 2.64830433e-05 5.19347486e-05
      5.74313053e-05 3.55089760e-05 6.78117112e-06 2.33742782e-07
      -1.26807445e-08 -3.86327095e-08 -6.32770252e-07 1.62222568e-05
      5.51523990e-05 1.00798577e-04 1.44797086e-04 1.73224675e-04
      1.78423667e-04 1.71844877e-04 1.62133554e-04 1.41975601e-04
      1.15142728e-04 6.44293395e-05 3.01565669e-05 2.32067050e-05
      1.32790856e-05 -9.78746357e-06 -1.90953724e-05 -9.62973559e-07
      4.14005008e-05 8.45470495e-05 1.09221786e-04 1.14495750e-04
      8.74606922e-05 3.82447761e-05 4.73349291e-06 2.52937440e-07
      -2.66356248e-09 -8.74895534e-08 -8.49789217e-07 2.08118236e-05
      7.04422127e-05 1.26221887e-04 1.78068163e-04 2.11037070e-04
      2.18546382e-04 2.07519814e-04 1.76631103e-04 1.42023549e-04
      9.44107815e-05 3.32622039e-05 -1.82544172e-05 -4.03767117e-05
      -4.66919337e-05 -3.67330431e-05 4.37522158e-06 6.46943954e-05
      1.23912352e-04 1.61532982e-04 1.67767575e-04 1.44173813e-04
      9.08558795e-05 3.39646758e-05 4.68615781e-06 1.25121716e-07 0.
      -9.54603294e-08 -1.81558974e-07 2.13469866e-05 7.33661655e-05
      1.25477454e-04 1.79928829e-04 2.13581981e-04 2.25290976e-04
      2.06220808e-04 1.50145643e-04 8.46023322e-05 3.95420557e-06
      -8.22549700e-05 -1.42147546e-04 -1.60716067e-04 -1.33339563e-04
      -7.50884938e-05 1.60331165e-05 1.04340914e-04 1.64911049e-04
      1.88701990e-04 1.72743647e-04 1.31636858e-04 7.61238043e-05
      2.33992923e-05 3.38857603e-06 -1.56474851e-08 -4.16463530e-09
      3.52198946e-08 4.08703755e-07 1.60021482e-05 5.55872211e-05
      9.95888404e-05 1.41448560e-04 1.67076214e-04 1.66821323e-04
      1.31592416e-04 5.38085405e-05 -4.15606046e-05 -1.41745986e-04
      -2.30659251e-04 -2.77712970e-04 -2.67719530e-04 -2.03770644e-04
      -1.03413826e-04 6.64058825e-06 9.64639476e-05 1.45144601e-04
      1.54871814e-04 1.31389155e-04 9.30516180e-05 4.87353354e-05
      1.35633700e-05 1.37924098e-06 -2.20527530e-09 -4.03449141e-09
      -7.34479499e-09 2.59200412e-08 7.14727503e-06 2.68098447e-05
      5.18769957e-05 7.32452463e-05 7.86352466e-05 5.10178652e-05
      -1.19909055e-05 -1.02106133e-04 -1.97816509e-04 -2.83311645e-04
      -3.41346866e-04 -3.56020813e-04 -3.14970850e-04 -2.29180732e-04
      -1.26174040e-04 -2.51870788e-05 4.54545261e-05 8.27995900e-05
      8.99240331e-05 7.40665637e-05 4.79105438e-05 2.17740690e-05
      4.71800240e-06 1.60631515e-07 -4.07127754e-09 0. 0.
      -2.69535747e-07 4.94311962e-07 3.38208224e-06 6.15161025e-06
      5.17331273e-07 -2.22486942e-05 -7.26931103e-05 -1.47529820e-04
      -2.31879778e-04 -3.08486080e-04 -3.56737815e-04 -3.71698872e-04
      -3.49096779e-04 -2.90993979e-04 -2.09840684e-04 -1.31624751e-04
      -6.22670268e-05 -1.50200958e-05 1.27528729e-05 2.59788667e-05
      2.29312373e-05 1.36322051e-05 4.71530120e-06 8.69403607e-07
      4.04030853e-09 0. 0. 0. -1.07276534e-07 -7.27718771e-07
      -2.62355775e-06 -7.24714118e-06 -1.86379912e-05 -3.95795360e-05
      -7.23914491e-05 -1.16355732e-04 -1.62336568e-04 -1.96490408e-04
      -2.12880041e-04 -2.11384977e-04 -1.92006322e-04 -1.60003619e-04
      -1.22842976e-04 -8.82408349e-05 -5.69231343e-05 -3.43206921e-05
      -1.69956329e-05 -5.84566124e-06 -2.93202646e-07 2.10572665e-07
      8.52058633e-07 4.73887525e-07 6.58854162e-08 0. 0. 0.
      -1.03278950e-08 -1.60175475e-07 -1.01952935e-06 -3.22389246e-06
      -8.25480311e-06 -1.75292025e-05 -3.12712909e-05 -4.69129154e-05
      -6.24654203e-05 -7.27809092e-05 -7.78306567e-05 -7.74173459e-05
      -7.04518534e-05 -6.13035518e-05 -5.19289933e-05 -4.10471694e-05
      -2.92920613e-05 -1.87212154e-05 -1.01884261e-05 -5.32684044e-06
      -2.46907621e-06 -9.70133783e-07 -2.01084831e-07 5.31689963e-08
      7.20747906e-08 0. 0. 0. 0. -5.28872501e-09 -2.54389562e-07
      -1.06987989e-06 -3.18106004e-06 -6.61026434e-06 -1.18888029e-05
      -1.68853549e-05 -2.23775496e-05 -2.69395914e-05 -2.91014330e-05
      -2.90983589e-05 -2.68799104e-05 -2.27985947e-05 -1.90423743e-05
      -1.47688006e-05 -1.02939803e-05 -6.26081055e-06 -3.41432883e-06
      -1.68847828e-06 -5.64511595e-07 -1.24107572e-07 -2.96481439e-09
      -6.73084033e-09 0. 0. 0. 0. 0. 0. -1.39568881e-08 -8.46830162e-08
      -2.45884735e-07 -5.15166278e-07 -6.43040778e-07 -9.31272893e-07
      -1.71638283e-06 -2.15099567e-06 -2.71831050e-06 -3.12291240e-06
      -3.79882476e-06 -3.48937510e-06 -2.96956819e-06 -2.28137037e-06
      -1.34622417e-06 -5.33696266e-07 -3.27021951e-07 -1.66183398e-07
      -1.84877962e-07 -2.73422653e-08 0. 0. 0. 0. -2.13631938e-06 0. 0.
      0. 0. 0. 0. 0. 0. 0. 0. 0. 0. -1.65777205e-08 -5.45853993e-08
      -2.03487502e-08 -8.47864723e-10 0. 0. 0. 0. 0. 0. 0. 0. 0. 0. 0.
      0. 0. 0. 0. 0. -8.32469482e-10 -3.00199665e-09 -4.79592543e-08
      -1.16187977e-07 -2.17710152e-07 -2.87534078e-07 -5.28734006e-07
      -6.87859369e-07 -7.40904341e-07 -7.89494436e-07 -8.76621414e-07
      -8.13197119e-07 -8.73025783e-07 -6.36406526e-07 -3.64961608e-07
      -3.04228593e-07 -2.38584761e-07 -8.29718374e-08 -3.69714819e-08
      -1.46259929e-08 0. 0. 0. 0. 0. 0. -2.91766833e-09 -2.91624747e-09
      -2.71897633e-08 -2.11167297e-08 -2.15225697e-07 -6.92958565e-07
      -1.29962734e-06 -2.42842975e-06 -4.09619224e-06 -5.76310731e-06
      -8.38906544e-06 -1.11202971e-05 -1.41113433e-05 -1.59812971e-05
      -1.58404564e-05 -1.38273881e-05 -1.14586428e-05 -8.36570507e-06
      -4.78722768e-06 -2.48504989e-06 -1.20891877e-06 -3.95264721e-07
      -1.27996685e-07 -2.41168987e-08 0. 0. 0. 0. -1.05517675e-08
      -2.33483437e-08 -5.06579667e-08 1.99456622e-07 -3.28028477e-07
      -1.45988201e-06 -3.14213207e-06 -6.29014767e-06 -1.00475381e-05
      -1.28210086e-05 -1.66388272e-05 -2.41455964e-05 -3.21081025e-05
      -3.90525893e-05 -4.02837468e-05 -3.72559080e-05 -3.17992708e-05
      -2.41106136e-05 -1.46259581e-05 -8.88790055e-06 -4.66178290e-06
      -1.99866940e-06 -7.94911102e-07 -1.23953427e-07 -1.45733559e-08 0.
      0. 2.08849738e-08 5.94600680e-09 9.02680384e-08 1.01150727e-06
      3.76282969e-06 7.65322056e-06 1.55337511e-05 2.61708883e-05
      3.76607895e-05 5.28579185e-05 6.01660649e-05 5.02907860e-05
      2.66876486e-05 -5.97995859e-06 -3.23686982e-05 -5.52317288e-05
      -6.87120482e-05 -6.64760082e-05 -6.08355913e-05 -4.97531546e-05
      -3.62756800e-05 -2.21669743e-05 -1.28641359e-05 -5.37361484e-06
      -1.20905554e-06 -1.66208224e-07 -1.70799606e-08 0. 0.
      4.99157782e-09 1.20520463e-06 6.93011634e-06 1.99792012e-05
      3.96567921e-05 6.68345965e-05 1.01650476e-04 1.39980111e-04
      1.75843394e-04 1.93432206e-04 1.84076329e-04 1.52541310e-04
      1.02098049e-04 5.37603373e-05 5.29489535e-06 -4.16751864e-05
      -6.61325612e-05 -7.16242648e-05 -7.04842168e-05 -6.44230677e-05
      -5.17293520e-05 -3.43406282e-05 -1.73318840e-05 -5.07354525e-06
      -8.53757228e-07 -4.09456540e-08 0. 6.54744259e-09 1.06337268e-07
      4.55988811e-06 1.85751760e-05 4.09501190e-05 7.45462748e-05
      1.15475166e-04 1.62827811e-04 1.97047615e-04 2.15184089e-04
      2.05298726e-04 1.69590174e-04 1.20038982e-04 7.47240701e-05
      4.47873936e-05 2.25957720e-05 -1.26626428e-05 -4.17864867e-05
      -5.45400944e-05 -6.07441580e-05 -6.68273788e-05 -6.84703336e-05
      -5.25107680e-05 -2.90940316e-05 -1.07206679e-05 -2.12829991e-06
      -1.74849703e-07 -4.76280970e-09 2.29245543e-07 -5.35398726e-07
      5.91961725e-06 2.48190918e-05 4.84009543e-05 7.81762865e-05
      1.02016988e-04 1.14576782e-04 1.06265798e-04 7.50358595e-05
      2.56329477e-05 -3.14200697e-05 -8.36299223e-05 -1.05467276e-04
      -9.24976484e-05 -6.75200135e-05 -5.85799608e-05 -6.30276772e-05
      -5.71122146e-05 -5.63745962e-05 -6.82652317e-05 -7.54810535e-05
      -6.24166350e-05 -3.61454877e-05 -1.41848777e-05 -2.74774106e-06
      -1.65202451e-07 -2.26111823e-08 -3.05733181e-07 -2.36227584e-06
      3.20760796e-06 1.86949510e-05 2.96990274e-05 3.51162598e-05
      1.84291421e-05 -2.22857216e-05 -8.08736295e-05 -1.51163185e-04
      -2.16408444e-04 -2.62597692e-04 -2.81487912e-04 -2.62744870e-04
      -2.02089330e-04 -1.32532310e-04 -8.80330990e-05 -7.11573011e-05
      -6.41893421e-05 -6.86286439e-05 -8.07681427e-05 -8.18736517e-05
      -6.56623088e-05 -3.65511041e-05 -1.43550469e-05 -2.55325403e-06
      -1.37338120e-07 -4.83177303e-08 -5.70879763e-07 -3.42209592e-06
      -2.29198577e-06 2.71216595e-06 -2.03908303e-06 -2.45382689e-05
      -7.99965928e-05 -1.62815573e-04 -2.53857870e-04 -3.29832983e-04
      -3.69331770e-04 -3.59412719e-04 -3.16355116e-04 -2.44910334e-04
      -1.54089619e-04 -7.30380343e-05 -3.80173988e-05 -5.04950331e-05
      -7.59745017e-05 -9.41392937e-05 -1.06069849e-04 -9.32575713e-05
      -6.31809016e-05 -3.02955050e-05 -1.01673977e-05 -1.87854812e-06
      -1.64524181e-07 -6.97300848e-08 -8.60464525e-07 -3.61613274e-06
      -4.09801396e-06 -9.34128911e-06 -2.94830279e-05 -7.56400259e-05
      -1.52791225e-04 -2.52137019e-04 -3.45432665e-04 -3.96029704e-04
      -3.77107295e-04 -2.86740891e-04 -1.71457505e-04 -7.66367375e-05
      -1.35909852e-06 4.70068844e-05 2.05948345e-05 -4.85418896e-05
      -1.06807500e-04 -1.31178269e-04 -1.31570749e-04 -1.03584716e-04
      -5.95379061e-05 -2.29845937e-05 -5.97288727e-06 -1.19367110e-06
      -8.24002697e-08 -6.07859931e-08 -7.37759365e-07 -2.93973062e-06
      -4.73005593e-06 -1.39337899e-05 -4.33722998e-05 -1.02608952e-04
      -1.89945713e-04 -2.87353410e-04 -3.56299628e-04 -3.50408314e-04
      -2.49863340e-04 -8.35141036e-05 5.06835167e-05 1.02664839e-04
      1.22670666e-04 1.03264552e-04 1.46632210e-05 -9.07198264e-05
      -1.48871331e-04 -1.60842188e-04 -1.46905993e-04 -1.08863882e-04
      -6.06771828e-05 -2.02948577e-05 -3.12635166e-06 -6.09791925e-07
      -4.66752823e-08 -2.88546111e-08 -4.56163491e-07 -2.04982757e-06
      -4.75225715e-06 -1.56516508e-05 -4.99907364e-05 -1.15731447e-04
      -2.02059251e-04 -2.78139370e-04 -2.97832303e-04 -2.22065559e-04
      -5.60698354e-05 1.27189283e-04 2.00505936e-04 1.65567893e-04
      1.21455843e-04 6.89050648e-05 -3.09940406e-05 -1.24230733e-04
      -1.60777417e-04 -1.61662756e-04 -1.42916761e-04 -1.07152962e-04
      -6.37408666e-05 -2.20805850e-05 -2.01588841e-06 -3.93607678e-07
      -6.82137866e-08 -6.27584740e-09 -2.02699340e-07 -1.09852931e-06
      -3.68642759e-06 -1.59390802e-05 -5.63801441e-05 -1.23109232e-04
      -1.99583650e-04 -2.45932373e-04 -2.25006763e-04 -1.07470303e-04
      7.03294354e-05 2.04681783e-04 1.64689496e-04 6.10575298e-05
      2.08206757e-06 -4.69665838e-06 -5.20143731e-05 -9.16476492e-05
      -1.11994741e-04 -1.22103316e-04 -1.21972109e-04 -1.02717233e-04
      -6.70143636e-05 -2.63300572e-05 -2.90076832e-06 -5.07613720e-07
      -9.88330981e-08 -2.73430061e-08 3.28586509e-08 -4.26470393e-07
      -2.44417834e-06 -1.51979439e-05 -6.06680806e-05 -1.28665270e-04
      -1.95225788e-04 -2.26219679e-04 -1.92198946e-04 -8.81541418e-05
      3.75902346e-05 7.78029207e-05 -4.66253223e-05 -1.47374070e-04
      -1.59994452e-04 -8.61829394e-05 -4.91454011e-05 -1.83614957e-05
      -2.13948624e-05 -5.89633200e-05 -8.79564250e-05 -9.18146470e-05
      -6.68261418e-05 -2.86712457e-05 -4.06892650e-06 -6.36818584e-07
      -2.49374281e-08 -1.00086819e-08 1.44167601e-07 4.88263652e-07
      -5.16183889e-07 -1.22263145e-05 -6.07943075e-05 -1.28697400e-04
      -1.93216882e-04 -2.30016143e-04 -2.18524641e-04 -1.61905453e-04
      -1.13522161e-04 -1.57460599e-04 -2.95519218e-04 -3.65716347e-04
      -3.09835712e-04 -1.74530389e-04 -5.94733756e-05 4.05433748e-05
      5.83092697e-05 6.13933707e-06 -5.00027199e-05 -7.02937323e-05
      -5.91975368e-05 -2.80116783e-05 -5.48769913e-06 -7.67698509e-07
      -8.85145752e-08 -6.03239858e-09 1.30983423e-07 2.13362500e-06
      4.64351115e-06 -5.38156655e-06 -5.60541157e-05 -1.23667094e-04
      -1.83903598e-04 -2.28958917e-04 -2.49090925e-04 -2.54191284e-04
      -2.71490775e-04 -3.48866393e-04 -4.55153437e-04 -4.89358266e-04
      -3.95125244e-04 -2.36688269e-04 -6.56472985e-05 7.18564406e-05
      9.91318520e-05 4.66244346e-05 -1.38622945e-05 -4.72325410e-05
      -4.64905606e-05 -2.56962430e-05 -6.71991029e-06 -1.26782425e-06
      -1.02839323e-07 0. 1.23464019e-07 3.15552529e-06 1.25913257e-05
      6.99596194e-06 -4.21062505e-05 -1.06048668e-04 -1.61401069e-04
      -2.08726342e-04 -2.54278304e-04 -2.92811514e-04 -3.41816136e-04
      -4.06881212e-04 -4.84247459e-04 -4.98904963e-04 -3.99993733e-04
      -2.38696492e-04 -5.43711212e-05 7.61431147e-05 1.06805011e-04
      5.69313015e-05 8.73013050e-06 -2.52066056e-05 -3.38531536e-05
      -2.43905997e-05 -7.80619575e-06 -1.35033213e-06 -7.64786492e-08
      -1.71574239e-08 1.23947885e-07 5.43667420e-06 2.40982354e-05
      2.85527985e-05 -9.16598310e-06 -6.61053346e-05 -1.22877609e-04
      -1.74342131e-04 -2.33324856e-04 -2.91662203e-04 -3.44484841e-04
      -3.98255419e-04 -4.56624897e-04 -4.56609705e-04 -3.56714037e-04
      -1.92777268e-04 -3.13395067e-05 7.36049769e-05 9.87066451e-05
      5.72710087e-05 1.84779128e-05 -1.42402769e-05 -3.00050924e-05
      -2.32641833e-05 -7.62528680e-06 -1.12685257e-06 -1.20441683e-07
      -2.11599538e-09 1.61178960e-07 8.59627926e-06 3.54445765e-05
      5.53132086e-05 4.09019231e-05 -6.77755952e-06 -6.44200118e-05
      -1.26306652e-04 -1.97225774e-04 -2.68055359e-04 -3.27578135e-04
      -3.74664785e-04 -4.06206294e-04 -3.81650083e-04 -2.76195817e-04
      -1.22409154e-04 8.85675217e-06 7.80630653e-05 8.65068214e-05
      5.11622129e-05 1.55318830e-05 -1.51708036e-05 -2.89338914e-05
      -1.93942051e-05 -6.68674829e-06 -1.09211715e-06 -6.97107012e-08 0.
      3.67649534e-07 9.61558271e-06 4.25065155e-05 7.72440035e-05
      8.97793361e-05 6.35200922e-05 1.69818431e-05 -4.36422852e-05
      -1.22157755e-04 -2.02974043e-04 -2.64664734e-04 -3.03118984e-04
      -3.10050527e-04 -2.60986359e-04 -1.57070826e-04 -3.33836106e-05
      4.99378220e-05 8.15559906e-05 6.62634266e-05 3.60509694e-05
      2.86869363e-06 -2.10829930e-05 -2.52863283e-05 -1.51969980e-05
      -4.56742782e-06 -7.06832623e-07 -1.68892988e-08 -3.91594712e-09
      2.85405321e-07 7.91247203e-06 3.63393738e-05 7.56533846e-05
      1.10526533e-04 1.24696686e-04 1.09185719e-04 7.06006176e-05
      3.63752065e-06 -6.48505375e-05 -1.23379723e-04 -1.51035594e-04
      -1.47013823e-04 -1.04290586e-04 -3.05339090e-05 3.80614256e-05
      6.90464949e-05 6.50782822e-05 3.96259929e-05 9.83844984e-06
      -1.29903465e-05 -2.34818508e-05 -1.95146658e-05 -1.00498328e-05
      -2.66830625e-06 -3.41398049e-07 -2.84685009e-09 -3.79357434e-09
      2.15585256e-08 5.50448249e-06 2.41965554e-05 5.88799594e-05
      9.60407779e-05 1.37189229e-04 1.61561562e-04 1.57898889e-04
      1.33675770e-04 9.06327186e-05 5.23155722e-05 2.56680705e-05
      1.53967303e-05 1.71502434e-05 3.49907787e-05 4.40119438e-05
      3.83780352e-05 2.13729290e-05 1.90166293e-06 -1.30538810e-05
      -2.03426989e-05 -1.81470132e-05 -1.15622779e-05 -4.92091249e-06
      -1.11388715e-06 -6.71260665e-08 -5.25572608e-09 0. 0.
      2.15835439e-06 1.14549121e-05 3.37550082e-05 6.22209918e-05
      9.95634036e-05 1.34897957e-04 1.55285015e-04 1.56549111e-04
      1.40607779e-04 1.12444402e-04 7.86818127e-05 4.79178052e-05
      1.21641033e-05 -7.03513751e-06 -1.84367145e-05 -2.23411498e-05
      -2.02622905e-05 -2.25425847e-05 -2.39078490e-05 -1.78199080e-05
      -1.10551327e-05 -5.53367408e-06 -1.66327948e-06 -3.12900255e-07
      1.10116494e-08 0. 0. 0. 5.08493201e-07 3.72564523e-06
      1.19550059e-05 2.42368660e-05 4.11323090e-05 5.73208308e-05
      6.95665440e-05 7.12881665e-05 5.95928432e-05 4.14467686e-05
      1.35355640e-05 -1.05505314e-05 -3.56864148e-05 -4.87078323e-05
      -5.17190892e-05 -4.87686157e-05 -4.10195644e-05 -3.00049542e-05
      -1.94283475e-05 -1.04515584e-05 -5.17881108e-06 -2.24197606e-06
      -6.41174438e-07 -1.31131387e-07 -9.54244683e-09 0. 0. 0.
      3.59890571e-08 2.32771562e-08 6.71693101e-07 1.18624541e-06
      1.25061774e-06 -1.26822147e-06 -6.13931661e-06 -1.55134621e-05
      -2.77449308e-05 -3.95837014e-05 -4.89318190e-05 -5.56330415e-05
      -5.70597113e-05 -5.45182302e-05 -4.90145285e-05 -4.09662534e-05
      -2.88231458e-05 -1.71938718e-05 -9.30601800e-06 -4.82396308e-06
      -2.11949464e-06 -7.69578094e-07 -1.51077387e-07 -1.60784630e-08
      -7.47626139e-09 0. 0. 0. 0. -4.55999771e-09 -1.71637836e-07
      -6.67314225e-07 -2.15569935e-06 -4.71080466e-06 -9.66213338e-06
      -1.52589037e-05 -2.19115118e-05 -2.81558041e-05 -3.25346955e-05
      -3.40919469e-05 -3.32321251e-05 -2.86983450e-05 -2.35946864e-05
      -1.80336192e-05 -1.19229026e-05 -6.61168997e-06 -3.13728469e-06
      -1.50805636e-06 -5.24056986e-07 -1.06068974e-07 -3.26730198e-09
      -3.95481425e-09 0. 0. 0. 0. 0. 0. -9.32778033e-09 -6.73234837e-08
      -2.03388836e-07 -4.45782149e-07 -6.10591997e-07 -9.83896371e-07
      -1.87352987e-06 -2.45640558e-06 -3.32336163e-06 -4.08625692e-06
      -5.15462079e-06 -4.82980749e-06 -4.22126504e-06 -3.23576114e-06
      -1.89552384e-06 -7.72767578e-07 -3.71768579e-07 -1.76831463e-07
      -1.62178665e-07 -2.42115252e-08 0. 0. 0. 0. -1.59450906e-06 0. 0.
      0. 0. 0. 0. 0. 0. 0. 0. 0. 0. -2.84493513e-08 -1.03974735e-07
      -4.63823646e-08 -1.93259853e-09 0. 0. 0. 0. 0. 0. 0. 0. 0. 0. 0.
      0. 0. 0. 0. 0. -2.11910423e-09 -8.29082047e-09 -1.47109048e-07
      -3.47766303e-07 -5.01320869e-07 -6.59032594e-07 -1.26806071e-06
      -1.68887777e-06 -1.82235726e-06 -1.75413368e-06 -1.66840096e-06
      -1.59512251e-06 -1.67715041e-06 -1.26130419e-06 -7.50453580e-07
      -5.41399913e-07 -3.95223339e-07 -1.63591409e-07 -1.01013939e-07
      -4.61929410e-08 0. 0. 0. 0. 0. 0. -4.25375202e-09 -5.64683500e-09
      -5.08987483e-08 -3.90504269e-08 -4.46483654e-07 -1.39266899e-06
      -2.39462042e-06 -4.21986852e-06 -7.50848812e-06 -1.10198025e-05
      -1.51417407e-05 -1.86775142e-05 -2.22783092e-05 -2.40120680e-05
      -2.31027734e-05 -1.96392684e-05 -1.54378668e-05 -1.04129831e-05
      -5.84091867e-06 -3.07367009e-06 -1.49611981e-06 -5.58260183e-07
      -1.83202275e-07 -3.64730326e-08 0. 0. 0. 0. -1.25923885e-08
      -3.35256019e-08 -7.26709004e-08 -3.74468129e-07 -1.31068214e-06
      -3.38761015e-06 -6.78813740e-06 -1.30710077e-05 -2.15931013e-05
      -3.19774263e-05 -4.31376502e-05 -5.47738018e-05 -6.47046763e-05
      -6.88510627e-05 -6.51643422e-05 -5.70645461e-05 -4.39266078e-05
      -2.84772959e-05 -1.39278209e-05 -5.59845239e-06 -1.77358220e-06
      -1.63847204e-07 -2.56967013e-07 -6.32418349e-08 -1.43932724e-08 0.
      0. -2.35912889e-09 -2.11198117e-08 -7.23035498e-08 -6.02022610e-08
      -7.65130153e-07 -3.33606522e-06 -8.21780122e-06 -1.66959999e-05
      -3.23330096e-05 -5.37047126e-05 -7.89715268e-05 -1.11554808e-04
      -1.48926309e-04 -1.74230008e-04 -1.81524447e-04 -1.65758698e-04
      -1.35592563e-04 -9.63927960e-05 -5.52497768e-05 -1.82380645e-05
      7.86156761e-07 9.60933266e-06 8.89063631e-06 3.12754923e-06
      1.55901674e-07 -7.02997056e-08 -1.97861389e-08 0. 0.
      -4.89785386e-08 -1.80674121e-07 4.44123494e-09 -6.04387367e-07
      -3.53752375e-06 -1.16448373e-05 -2.56472176e-05 -4.32653615e-05
      -7.54032080e-05 -1.20328892e-04 -1.78954419e-04 -2.45041912e-04
      -2.90982687e-04 -3.03195149e-04 -2.66937743e-04 -1.99849732e-04
      -1.19270728e-04 -5.05902390e-05 1.57450484e-06 3.07512819e-05
      4.20025390e-05 3.48032918e-05 1.31039642e-05 8.03330579e-07
      -6.03958540e-07 -4.02021705e-08 0. -7.40037420e-10 -1.98027706e-07
      -5.80830601e-07 -3.06230675e-07 -2.10485496e-06 -7.63610842e-06
      -1.69917093e-05 -3.29258073e-05 -5.06390716e-05 -8.37600019e-05
      -1.42781006e-04 -2.22482020e-04 -3.18737730e-04 -3.97549185e-04
      -4.17860429e-04 -3.62395687e-04 -2.56934727e-04 -1.41521567e-04
      -4.47170314e-05 1.26478735e-05 4.60932570e-05 5.67290226e-05
      4.40171789e-05 1.54726113e-05 -1.19714036e-06 -1.15263913e-06
      -2.08053692e-07 -6.35340980e-09 -1.35763827e-07 -9.03069292e-07
      -2.38342955e-06 -4.96035591e-06 -9.53320705e-06 -2.11498191e-05
      -3.24482098e-05 -4.65240082e-05 -6.39732971e-05 -1.03474791e-04
      -1.76244852e-04 -2.71282275e-04 -3.78148834e-04 -4.68518265e-04
      -4.91187209e-04 -4.23719321e-04 -2.96118989e-04 -1.61006639e-04
      -6.13189768e-05 -2.94524511e-06 3.10197320e-05 3.99280470e-05
      2.57713036e-05 2.22335370e-06 -5.84694908e-06 -2.02765773e-06
      -2.08128654e-07 -3.35655557e-08 -4.72411898e-07 -2.79834080e-06
      -7.17485364e-06 -1.22014235e-05 -2.10884318e-05 -3.57892714e-05
      -4.89068480e-05 -6.35264805e-05 -7.84412332e-05 -1.24151542e-04
      -1.89892336e-04 -2.74582446e-04 -3.66069638e-04 -4.48410341e-04
      -4.66890313e-04 -3.93946568e-04 -2.62382615e-04 -1.36301911e-04
      -5.42548732e-05 -1.07679616e-05 5.32411241e-06 7.23550556e-06
      -3.80212441e-06 -1.25969345e-05 -1.03781904e-05 -2.53771941e-06
      -2.05293773e-07 -5.99237993e-08 -7.69669157e-07 -4.27130863e-06
      -1.08472641e-05 -1.77651218e-05 -2.77723466e-05 -4.38862044e-05
      -5.38277527e-05 -6.17744736e-05 -6.89304870e-05 -1.00267745e-04
      -1.45031489e-04 -2.02141222e-04 -2.83349742e-04 -3.66176304e-04
      -3.78848577e-04 -2.95603066e-04 -1.64174082e-04 -6.39700520e-05
      -2.23109764e-05 -1.54539885e-05 -2.09999471e-05 -2.48736633e-05
      -2.68996009e-05 -2.03217205e-05 -9.64802439e-06 -2.29684838e-06
      -2.48652299e-07 -8.45585362e-08 -9.89997716e-07 -4.32144043e-06
      -1.01676796e-05 -1.62446813e-05 -2.49110853e-05 -3.58073667e-05
      -3.45781482e-05 -2.51079346e-05 -1.36449898e-05 -2.42219212e-05
      -5.90915333e-05 -1.15286079e-04 -2.12544532e-04 -3.02511908e-04
      -3.02541768e-04 -1.94582040e-04 -5.52000238e-05 1.16681485e-05
      8.68483949e-06 -2.23900261e-05 -4.43283643e-05 -4.92187719e-05
      -3.73446455e-05 -1.75935456e-05 -6.09455446e-06 -1.64292646e-06
      -1.28840227e-07 -7.27840828e-08 -8.28713041e-07 -3.40220231e-06
      -6.76931359e-06 -1.06534499e-05 -1.41234104e-05 -1.25593278e-05
      6.42397845e-06 3.87192631e-05 6.51843802e-05 5.86163915e-05
      3.15313537e-06 -9.17299112e-05 -2.11700215e-04 -2.96770828e-04
      -2.67797383e-04 -1.15238283e-04 2.44145376e-05 5.53980717e-05
      1.42205026e-05 -3.89048582e-05 -6.12243020e-05 -6.04832858e-05
      -4.12907139e-05 -1.62318756e-05 -3.46723436e-06 -7.53243569e-07
      -7.43908686e-08 -3.74348019e-08 -4.22206995e-07 -1.97354575e-06
      -3.42914564e-06 -4.37294511e-06 -6.21231948e-07 2.19303984e-05
      6.66435590e-05 1.20325320e-04 1.46893362e-04 1.04462313e-04
      3.48915393e-07 -1.22001729e-04 -2.40761176e-04 -3.20036866e-04
      -2.58395070e-04 -6.94876217e-05 5.95091442e-05 5.96662285e-05
      1.43217699e-06 -4.70571940e-05 -6.39026402e-05 -5.91243916e-05
      -3.98949051e-05 -1.37995103e-05 -1.50725339e-06 -3.49631790e-07
      -9.45544585e-08 -4.38762049e-09 -4.45999042e-08 -1.06162474e-06
      -1.40030045e-06 2.67911537e-06 1.84316086e-05 6.85314008e-05
      1.41745899e-04 2.02999727e-04 2.09154183e-04 1.32054105e-04
      5.13376699e-06 -1.15934359e-04 -2.38183784e-04 -3.02625180e-04
      -2.13962005e-04 -2.06029217e-05 7.90108679e-05 5.80373016e-05
      1.11084173e-05 -2.24023406e-05 -4.36702030e-05 -4.43269601e-05
      -3.23742897e-05 -1.31961060e-05 -1.43761110e-06 -3.26625326e-07
      -1.43066629e-07 -1.22672903e-08 -3.18086113e-09 -3.66162368e-07
      9.82333177e-07 1.22880392e-05 4.24025493e-05 1.20111436e-04
      2.09106161e-04 2.68612202e-04 2.55369261e-04 1.77109236e-04
      7.71262858e-05 -1.43398574e-05 -1.40535063e-04 -1.90365230e-04
      -9.99200347e-05 5.60446351e-05 1.11031412e-04 9.10338495e-05
      5.81419627e-05 1.88966587e-05 -1.39481617e-05 -2.42071874e-05
      -1.90178034e-05 -1.08317572e-05 -1.89495040e-06 -5.76518744e-07
      -1.74983477e-08 -5.37024158e-09 -2.24285763e-08 -6.13079081e-08
      3.00710167e-06 1.55349462e-05 5.74633850e-05 1.41092896e-04
      2.24693562e-04 2.77964427e-04 2.65128852e-04 2.21254872e-04
      1.74843823e-04 9.83223144e-05 -1.16976435e-05 -4.38161369e-05
      3.15758371e-05 1.32538320e-04 1.47681087e-04 1.22373982e-04
      7.41864133e-05 2.09679656e-05 -1.29073997e-05 -2.10495473e-05
      -1.66260343e-05 -1.03577386e-05 -2.85560054e-06 -5.07900950e-07
      -7.51334923e-08 -7.73436426e-09 -2.09791757e-08 -2.90599758e-07
      1.18637001e-06 8.54025529e-06 4.37593480e-05 1.06206789e-04
      1.62331271e-04 1.97497488e-04 1.91341474e-04 1.72286309e-04
      1.44967315e-04 8.70099466e-05 1.75595524e-05 1.86427824e-05
      9.90866829e-05 1.54542664e-04 1.34490328e-04 8.00115231e-05
      1.00762709e-05 -3.47639216e-05 -4.93770895e-05 -4.39294527e-05
      -2.89076979e-05 -1.37395255e-05 -4.94884534e-06 -8.85751263e-07
      -8.88360105e-08 0. -3.26759135e-08 -2.98531546e-07 -2.43943850e-06
      -5.67084453e-06 2.31326749e-06 2.32717048e-05 4.35097791e-05
      4.49323998e-05 2.97819643e-05 9.42792303e-06 -1.32963523e-05
      -4.24369609e-05 -5.81582572e-05 -1.35817390e-05 6.40021462e-05
      8.74664329e-05 3.60276863e-05 -3.83887527e-05 -1.00187222e-04
      -1.15005125e-04 -9.89042092e-05 -7.18589436e-05 -4.06904874e-05
      -1.90113697e-05 -6.59401803e-06 -9.99558665e-07 -8.94999772e-08
      -1.77695778e-08 -2.14596216e-08 -5.55476447e-07 -5.45210241e-06
      -2.12443429e-05 -4.26676743e-05 -6.28843918e-05 -7.76905144e-05
      -1.01035359e-04 -1.34636110e-04 -1.69611827e-04 -1.82960692e-04
      -1.70374537e-04 -1.39633456e-04 -8.12422732e-05 -2.91790384e-05
      -2.69970660e-05 -8.40789362e-05 -1.50024091e-04 -1.74338740e-04
      -1.56807509e-04 -1.19747820e-04 -7.99153859e-05 -4.36382907e-05
      -1.90283918e-05 -5.83320389e-06 -6.40783128e-07 -8.07401577e-08
      -1.24808563e-09 -6.74652796e-08 -9.88233410e-07 -7.62447280e-06
      -3.03139423e-05 -6.92765170e-05 -1.16629410e-04 -1.61297765e-04
      -2.03875039e-04 -2.46254116e-04 -2.80270906e-04 -2.81107350e-04
      -2.46948795e-04 -1.95916364e-04 -1.51892877e-04 -1.23317688e-04
      -1.23455320e-04 -1.54469846e-04 -1.86223668e-04 -1.81270938e-04
      -1.49003215e-04 -1.07346183e-04 -6.88679575e-05 -3.56881064e-05
      -1.51135218e-05 -4.72242891e-06 -6.83915118e-07 -3.59499204e-08 0.
      -7.35533590e-08 -1.13270551e-06 -8.73388944e-06 -3.18752682e-05
      -7.44200515e-05 -1.33156456e-04 -1.94060514e-04 -2.51505029e-04
      -2.99257576e-04 -3.26760899e-04 -3.20028426e-04 -2.84512469e-04
      -2.49687932e-04 -2.24541494e-04 -1.96618552e-04 -1.74240660e-04
      -1.69786857e-04 -1.66323458e-04 -1.43305690e-04 -1.10933433e-04
      -7.58533351e-05 -4.52300628e-05 -2.27994151e-05 -1.00159787e-05
      -3.07476171e-06 -4.91884123e-07 -1.22884645e-08 -2.43364373e-09
      -5.13542098e-08 -1.00063187e-06 -7.06116953e-06 -2.50587327e-05
      -6.19087441e-05 -1.21055527e-04 -1.87872094e-04 -2.51974852e-04
      -3.01642111e-04 -3.25872359e-04 -3.18768929e-04 -2.95466627e-04
      -2.78839405e-04 -2.59806344e-04 -2.15855427e-04 -1.71469568e-04
      -1.32713161e-04 -1.04397790e-04 -7.84489894e-05 -5.78089821e-05
      -3.83228762e-05 -2.14796473e-05 -1.11725212e-05 -5.21630500e-06
      -1.68363670e-06 -2.69385652e-07 -1.33850186e-09 -2.35759257e-09
      -4.63479610e-09 -6.88563887e-07 -4.03746344e-06 -1.47428709e-05
      -4.06326544e-05 -8.60244982e-05 -1.45076614e-04 -2.09000485e-04
      -2.60736968e-04 -2.87267554e-04 -2.87169591e-04 -2.72555451e-04
      -2.57890584e-04 -2.29973593e-04 -1.69521387e-04 -1.11493559e-04
      -6.12110380e-05 -3.17236336e-05 -1.35648961e-05 -9.01519252e-06
      -6.64296249e-06 -5.12078623e-06 -3.64352150e-06 -1.76764092e-06
      -5.61148966e-07 -2.61657398e-08 -2.47107934e-09 0. 0.
      -2.50271711e-07 -1.60957507e-06 -6.92839376e-06 -2.00622762e-05
      -4.54143919e-05 -8.39434651e-05 -1.31612323e-04 -1.76573129e-04
      -2.07790974e-04 -2.20749760e-04 -2.18788875e-04 -2.04709344e-04
      -1.63643504e-04 -9.95982919e-05 -4.40137846e-05 8.72595251e-07
      2.28985155e-05 2.63068123e-05 2.05641445e-05 9.63193725e-06
      2.63026482e-06 5.00234421e-07 -1.33357119e-07 -9.88169688e-08
      1.50514490e-09 0. 0. 0. -7.38495842e-08 -5.28779481e-07
      -2.57971305e-06 -7.17302783e-06 -1.62030938e-05 -3.21559783e-05
      -5.22962619e-05 -7.65968507e-05 -9.85282750e-05 -1.08928856e-04
      -1.14339739e-04 -1.05937717e-04 -7.48317834e-05 -3.86675129e-05
      -1.35760511e-05 5.08637504e-06 1.62521192e-05 1.73692279e-05
      1.20285977e-05 5.57347266e-06 1.99284909e-06 3.41979785e-07
      -3.05008768e-07 -2.60367621e-08 -1.39562051e-08 0. 0. 0.
      -9.73433067e-09 -1.13611314e-07 -7.66972562e-07 -2.60847378e-06
      -6.74590319e-06 -1.48873351e-05 -2.73916648e-05 -4.12825866e-05
      -5.73129655e-05 -7.35813519e-05 -8.22056681e-05 -7.73244101e-05
      -6.37855992e-05 -5.38809218e-05 -4.66039710e-05 -3.88128501e-05
      -2.61565983e-05 -1.58428520e-05 -9.26430403e-06 -5.20902586e-06
      -1.71010151e-06 -3.79572867e-07 -2.18556082e-07 -2.70642477e-08
      -1.31092843e-08 0. 0. 0. 0. -4.75200590e-09 -1.95373957e-07
      -8.84159590e-07 -3.19095670e-06 -7.42438078e-06 -1.47201717e-05
      -2.27267974e-05 -3.19267419e-05 -4.10550201e-05 -4.62240132e-05
      -4.76771856e-05 -4.49862273e-05 -3.88333247e-05 -3.37443162e-05
      -2.58682703e-05 -1.73717690e-05 -1.03102702e-05 -5.54075814e-06
      -2.65543622e-06 -8.57621842e-07 -1.11346722e-07 -3.65662167e-09
      -6.07993300e-09 0. 0. 0. 0. 0. 0. -1.47163890e-08 -1.06008144e-07
      -3.19704753e-07 -7.50279071e-07 -1.00527120e-06 -1.48756817e-06
      -2.76813876e-06 -3.60824902e-06 -4.74725994e-06 -5.59097180e-06
      -6.91195328e-06 -6.21174740e-06 -5.22958817e-06 -3.92212951e-06
      -2.33969604e-06 -9.78739422e-07 -5.19565162e-07 -2.60955829e-07
      -2.48284209e-07 -3.56800172e-08 0. 0. 0. 0. -1.60650814e-06 0. 0.
      0. 0. 0. 0. 0. 0. 0. 0. 0. 0. -1.39381093e-08 -4.57983589e-08
      -1.70022663e-08 -7.08427983e-10 0. 0. 0. 0. 0. 0. 0. 0. 0. 0. 0.
      0. 0. 0. 0. 0. -1.01269959e-09 -3.52865226e-09 -4.79488520e-08
      -1.16426342e-07 -2.05430894e-07 -2.70724144e-07 -5.25832547e-07
      -6.82761709e-07 -7.60993544e-07 -8.51689833e-07 -9.60270654e-07
      -9.06432433e-07 -9.86019700e-07 -7.50878826e-07 -4.65778271e-07
      -3.81403993e-07 -2.78416735e-07 -9.25065464e-08 -4.33578720e-08
      -1.76280910e-08 0. 0. 0. 0. 0. 0. -3.39508222e-09 -4.10568690e-09
      -2.96898861e-08 -2.09983462e-08 -1.97939599e-07 -6.20037213e-07
      -1.13916269e-06 -2.13307749e-06 -3.76594971e-06 -5.61832849e-06
      -8.39475251e-06 -1.14608911e-05 -1.50462583e-05 -1.73044264e-05
      -1.74482193e-05 -1.54662812e-05 -1.26949890e-05 -9.11641928e-06
      -5.38085578e-06 -2.77928530e-06 -1.31016407e-06 -4.55579453e-07
      -1.68053035e-07 -3.28402905e-08 0. 0. 0. 0. -1.09348939e-08
      -2.65574389e-08 -2.09770246e-08 -3.47625530e-07 -9.60750640e-07
      -2.42048691e-06 -4.81257030e-06 -9.21216360e-06 -1.49081607e-05
      -2.26654538e-05 -2.99409257e-05 -3.92324000e-05 -4.72351676e-05
      -5.18804409e-05 -5.14142557e-05 -4.57177375e-05 -3.48910289e-05
      -2.26611828e-05 -1.06171592e-05 -3.02399189e-06 3.14851349e-07
      7.59181773e-07 4.38114341e-07 1.13486337e-07 2.07948450e-08 0. 0.
      -3.14438919e-09 -2.57656847e-08 -8.09982765e-08 -4.96170685e-07
      -1.96455835e-06 -4.12682857e-06 -9.46077034e-06 -1.83973225e-05
      -2.92772766e-05 -4.11719702e-05 -5.91825592e-05 -8.55415274e-05
      -1.15126626e-04 -1.31339417e-04 -1.31688023e-04 -1.14844210e-04
      -8.86492562e-05 -5.48597927e-05 -2.47293610e-05 4.27807026e-06
      2.76699520e-05 3.41508421e-05 2.88741867e-05 1.53221881e-05
      4.27783061e-06 5.84525253e-07 -1.90066718e-08 0. 0.
      -5.82849715e-08 -3.97592260e-07 -2.17250431e-06 -6.55042368e-06
      -1.32102459e-05 -2.23564002e-05 -3.44839573e-05 -4.72670799e-05
      -5.76187376e-05 -7.40344840e-05 -1.03209641e-04 -1.37197785e-04
      -1.59970572e-04 -1.62438504e-04 -1.37576542e-04 -8.51385994e-05
      -2.33842457e-05 3.69440568e-05 8.67721101e-05 1.16547337e-04
      1.20920093e-04 9.90242988e-05 5.93331024e-05 1.93766973e-05
      3.77904826e-06 6.53715588e-08 0. -1.18108512e-09 -1.02866558e-07
      -1.58769194e-06 -5.83822975e-06 -1.32335726e-05 -2.39271976e-05
      -3.73317453e-05 -5.02016519e-05 -5.68465912e-05 -5.41399058e-05
      -5.41129157e-05 -6.91793539e-05 -9.62292834e-05 -1.18955861e-04
      -1.30969609e-04 -1.09675202e-04 -5.83027504e-05 7.08944617e-06
      7.78035683e-05 1.35975264e-04 1.74461136e-04 1.88351260e-04
      1.68610539e-04 1.14588096e-04 4.78427210e-05 1.02765935e-05
      7.72196472e-07 -3.79040577e-09 -1.26168004e-07 -7.62176228e-07
      -3.98224574e-06 -1.27313233e-05 -2.40846821e-05 -3.81059981e-05
      -5.19563255e-05 -6.00797393e-05 -5.86572605e-05 -4.53856592e-05
      -3.76287098e-05 -5.08229714e-05 -8.13156148e-05 -1.12252077e-04
      -1.31277411e-04 -1.21427358e-04 -9.18070727e-05 -4.18602212e-05
      2.17732722e-05 9.05455818e-05 1.49341970e-04 1.83491633e-04
      1.91505256e-04 1.47648054e-04 7.07378422e-05 1.44187807e-05
      7.21842696e-07 -1.95979570e-08 -3.48442398e-07 -2.35898756e-06
      -8.37768584e-06 -2.07857574e-05 -3.43971660e-05 -5.01296854e-05
      -6.31186413e-05 -6.58256031e-05 -6.25650864e-05 -5.45966577e-05
      -4.16996081e-05 -5.20086287e-05 -8.38536798e-05 -1.16601252e-04
      -1.45061698e-04 -1.60845026e-04 -1.61734366e-04 -1.41897428e-04
      -8.90453302e-05 -1.34299817e-05 6.16066172e-05 1.16567026e-04
      1.51455039e-04 1.35066308e-04 7.09693995e-05 1.32170771e-05
      5.45404191e-07 -4.43838388e-08 -5.84727445e-07 -3.44758701e-06
      -1.07647902e-05 -2.34557738e-05 -3.83050974e-05 -5.35317595e-05
      -6.40308135e-05 -5.88563234e-05 -5.47659874e-05 -4.14545357e-05
      -1.47796136e-05 -1.97970730e-05 -5.17189292e-05 -1.07048589e-04
      -1.68250117e-04 -2.13521460e-04 -2.46013224e-04 -2.48012599e-04
      -2.05270335e-04 -1.33695314e-04 -5.18171291e-05 1.94832610e-05
      7.10899258e-05 8.36290128e-05 4.73259570e-05 8.48365380e-06
      4.47169697e-07 -6.36929016e-08 -7.84753638e-07 -3.53196560e-06
      -1.03580051e-05 -2.07723479e-05 -3.53316027e-05 -4.89932609e-05
      -5.25711221e-05 -4.17392403e-05 -1.70140192e-05 1.84072287e-05
      5.87289906e-05 5.66771087e-05 -1.09245661e-06 -1.00819649e-04
      -1.96837893e-04 -2.65471055e-04 -3.23759974e-04 -3.35633493e-04
      -2.95419217e-04 -2.21668670e-04 -1.43360186e-04 -7.15756250e-05
      -8.96050642e-06 2.62191097e-05 2.15901800e-05 4.59442390e-06
      1.63760717e-07 -5.75574859e-08 -6.86593069e-07 -2.94087931e-06
      -7.92172250e-06 -1.59808460e-05 -2.90296939e-05 -4.10053435e-05
      -4.07778753e-05 -1.78934442e-05 3.42653220e-05 1.00126214e-04
      1.49847227e-04 1.36661460e-04 4.05694882e-05 -1.05454550e-04
      -2.15311753e-04 -2.85716844e-04 -3.51478258e-04 -3.65998101e-04
      -3.22726439e-04 -2.49260978e-04 -1.76716057e-04 -1.14768576e-04
      -5.45734292e-05 -8.45895283e-06 5.58368765e-06 1.56816191e-06
      3.33555050e-08 -2.86072925e-08 -3.97371167e-07 -1.84726161e-06
      -4.76856667e-06 -1.16200008e-05 -2.62951653e-05 -3.88416556e-05
      -3.64155530e-05 2.63298102e-06 7.80263435e-05 1.71983105e-04
      2.23196621e-04 1.94911161e-04 6.34998287e-05 -1.04915103e-04
      -2.06745332e-04 -2.70604185e-04 -3.19677871e-04 -3.20804742e-04
      -2.75857747e-04 -2.13620966e-04 -1.65040256e-04 -1.20264820e-04
      -7.14324487e-05 -2.47364242e-05 -1.07446408e-06 1.41926463e-07
      -7.73237190e-08 -5.18202459e-09 -1.60147763e-07 -9.59533736e-07
      -3.10021869e-06 -1.05886247e-05 -3.02889475e-05 -5.16113068e-05
      -5.20295907e-05 -8.82979475e-06 8.59308639e-05 1.84568169e-04
      2.27528421e-04 1.88998514e-04 3.15870093e-05 -1.26413113e-04
      -2.14882486e-04 -2.45365722e-04 -2.64505390e-04 -2.40630019e-04
      -1.93980712e-04 -1.58921874e-04 -1.39973374e-04 -1.11455309e-04
      -7.33695706e-05 -2.91082288e-05 -2.83020586e-06 -4.78014499e-07
      -1.17455180e-07 6.94745665e-08 -7.03236225e-08 -4.17277533e-07
      -2.44675994e-06 -1.23743584e-05 -4.37856688e-05 -8.01195929e-05
      -9.60549442e-05 -6.32107694e-05 1.99734986e-05 9.92136338e-05
      1.27951280e-04 7.82134521e-05 -8.12798535e-05 -2.02880154e-04
      -2.46372627e-04 -2.32952007e-04 -2.23436451e-04 -1.72837696e-04
      -1.29212436e-04 -1.15987539e-04 -1.15841598e-04 -1.00761143e-04
      -6.90421584e-05 -2.83051431e-05 -3.91413596e-06 -5.89190620e-07
      -1.86119227e-08 2.15269367e-08 -3.25426868e-08 -3.06648985e-07
      -2.23008965e-06 -1.56740407e-05 -5.91930366e-05 -1.07733198e-04
      -1.42716744e-04 -1.36662115e-04 -9.71260306e-05 -5.40719266e-05
      -4.90323146e-05 -1.11890746e-04 -2.37847824e-04 -3.06294765e-04
      -2.84308859e-04 -2.20880494e-04 -1.78737711e-04 -1.12836758e-04
      -8.10429774e-05 -8.77010170e-05 -9.59157769e-05 -8.40764187e-05
      -5.78253275e-05 -2.45566025e-05 -4.75280331e-06 -8.46290504e-07
      -8.13875687e-08 -6.97923319e-09 -2.55464556e-08 -4.17432403e-07
      -1.98218322e-06 -1.66298032e-05 -6.22353982e-05 -1.11629517e-04
      -1.58659372e-04 -1.85250668e-04 -1.86260382e-04 -1.82356467e-04
      -2.00878349e-04 -2.56634579e-04 -3.33372678e-04 -3.51596595e-04
      -2.86174938e-04 -2.03016709e-04 -1.30934437e-04 -6.78839860e-05
      -5.05176031e-05 -6.50616566e-05 -7.43499404e-05 -6.37660050e-05
      -4.21077712e-05 -1.86995312e-05 -5.47791251e-06 -1.17485877e-06
      -9.98152245e-08 0. -4.09925356e-08 -6.48289756e-07 -3.06939364e-06
      -1.58757721e-05 -4.46303748e-05 -7.43982382e-05 -1.24876547e-04
      -1.70663610e-04 -2.02115363e-04 -2.30417645e-04 -2.61830166e-04
      -3.04438319e-04 -3.49513168e-04 -3.40757979e-04 -2.65276904e-04
      -1.69084538e-04 -9.19804152e-05 -4.59466646e-05 -3.90267123e-05
      -4.86942336e-05 -5.01022550e-05 -4.28148523e-05 -2.57303200e-05
      -1.25105144e-05 -5.74833848e-06 -1.08159679e-06 -7.31710017e-08
      -1.45499035e-08 -3.18620152e-08 -9.68972131e-07 -4.77452386e-06
      -1.26695659e-05 -1.79551971e-05 -1.47641895e-05 -5.45192779e-05
      -1.12051479e-04 -1.66917453e-04 -2.20432732e-04 -2.59371678e-04
      -2.88813375e-04 -3.17959348e-04 -3.00436805e-04 -2.31038328e-04
      -1.45126120e-04 -7.74734071e-05 -4.65225821e-05 -3.93916343e-05
      -3.35244804e-05 -3.02826047e-05 -2.32622879e-05 -1.44510113e-05
      -7.99271947e-06 -4.95710356e-06 -7.17841203e-07 -1.11960325e-07
      -1.45791346e-09 -7.98866751e-08 -1.13437045e-06 -6.74376133e-06
      -1.17475511e-05 5.95793836e-06 4.01444522e-05 2.84164162e-05
      -2.59316221e-05 -1.00091827e-04 -1.69179766e-04 -2.16837419e-04
      -2.52042082e-04 -2.78003019e-04 -2.65116425e-04 -2.04069132e-04
      -1.32199930e-04 -7.60281473e-05 -4.35637157e-05 -2.73374462e-05
      -1.44244668e-05 -1.26892683e-05 -9.13827898e-06 -5.93327650e-06
      -5.49716151e-06 -3.90444711e-06 -6.62402158e-07 -5.86561413e-08 0.
      -1.00142607e-07 -1.27808914e-06 -7.48478124e-06 -1.49793959e-05
      8.44350325e-06 6.31113799e-05 8.70376607e-05 6.22602383e-05
      8.76775175e-07 -7.29163730e-05 -1.37887415e-04 -1.92263687e-04
      -2.25320196e-04 -2.19889247e-04 -1.68501036e-04 -1.03684055e-04
      -4.75254747e-05 -1.43952075e-05 1.16506908e-06 5.43477881e-06
      1.39677502e-06 2.06534810e-06 -1.93900246e-06 -4.89154945e-06
      -2.38715870e-06 -3.90432291e-07 2.21261391e-08 -2.76216738e-09
      -7.67581696e-08 -1.27896010e-06 -6.25189068e-06 -1.32367322e-05
      -3.08123049e-06 4.20995311e-05 9.08323855e-05 1.01483434e-04
      7.34392306e-05 2.04651496e-05 -4.23420970e-05 -1.03017905e-04
      -1.40679840e-04 -1.40047952e-04 -9.68865570e-05 -4.03134472e-05
      4.81205461e-06 2.07704270e-05 2.27131186e-05 1.79976032e-05
      1.19431488e-05 4.21490540e-06 -1.70105113e-06 -3.86992588e-06
      -1.10064491e-06 -1.42105165e-07 -2.24790586e-09 -2.67584954e-09
      -7.73259234e-09 -9.91210072e-07 -4.24887867e-06 -8.51676759e-06
      -9.11313327e-06 9.15983856e-06 4.41411503e-05 7.28144005e-05
      8.01128335e-05 5.81592139e-05 2.42262140e-05 -1.23626151e-05
      -3.53862706e-05 -3.80343445e-05 -1.05731533e-05 2.02039173e-05
      3.31465344e-05 3.48444191e-05 2.40649842e-05 1.41844339e-05
      5.04124318e-06 -7.62373631e-08 -2.15310956e-06 -1.82317626e-06
      -1.85631805e-07 2.64395865e-08 -4.14997992e-09 0. 0.
      -3.27561196e-07 -1.61283299e-06 -4.04583261e-06 -6.01928969e-06
      -1.14428576e-06 1.16710617e-05 2.81504726e-05 3.57801291e-05
      3.40431252e-05 2.37655622e-05 1.24088083e-05 3.72613295e-06
      9.43726945e-07 5.17693388e-06 1.07442847e-05 7.01395311e-06
      2.58080763e-06 4.60054650e-07 -1.92592120e-06 -3.32277432e-06
      -2.96538201e-06 -1.66394102e-06 -4.70995843e-07 9.96980489e-08
      5.41153300e-09 0. 0. 0. -9.70332152e-08 -4.03892756e-07
      -2.15317800e-06 -4.32235083e-06 -4.00362615e-06 5.18089450e-07
      6.29328770e-06 1.15405082e-05 7.22438881e-06 4.51450569e-06
      1.55217526e-06 -6.81970005e-06 -1.86021225e-05 -2.93031571e-05
      -3.51960589e-05 -3.20844920e-05 -2.33440405e-05 -1.57480936e-05
      -9.57731936e-06 -5.24458801e-06 -2.28408726e-06 -8.04807598e-07
      1.37718870e-09 -1.04854742e-07 -1.04468070e-08 0. 0. 0.
      -8.18792589e-09 8.44789980e-08 -4.83844474e-07 -2.21363439e-06
      -4.64075538e-06 -7.75646367e-06 -1.30733206e-05 -1.95712619e-05
      -2.89504405e-05 -3.66416534e-05 -4.37586605e-05 -4.90163329e-05
      -5.18526067e-05 -4.92008257e-05 -4.36448317e-05 -3.41735577e-05
      -2.35026127e-05 -1.42235394e-05 -7.71769010e-06 -3.27248290e-06
      -7.87149247e-07 9.18010841e-08 2.74121930e-07 -1.42290979e-08
      -8.34913472e-09 0. 0. 0. 0. -4.98400476e-09 -2.13659433e-07
      -9.10185634e-07 -2.68252347e-06 -5.88417470e-06 -1.11583249e-05
      -1.65438087e-05 -2.24179366e-05 -2.78123171e-05 -3.10440737e-05
      -3.22610031e-05 -3.09067254e-05 -2.57797601e-05 -2.14875563e-05
      -1.62847864e-05 -1.07721398e-05 -5.90356558e-06 -2.74179797e-06
      -1.21977814e-06 -4.03372553e-07 -1.03948331e-07 -2.41496512e-09
      -5.07154629e-09 0. 0. 0. 0. 0. 0. -1.02043076e-08 -7.82575711e-08
      -2.40148381e-07 -5.26843905e-07 -7.11245548e-07 -1.07031894e-06
      -1.86502552e-06 -2.35295465e-06 -3.25007250e-06 -4.07690641e-06
      -5.08800076e-06 -4.60847832e-06 -3.91347567e-06 -2.97621045e-06
      -1.75476839e-06 -7.14637963e-07 -3.62032239e-07 -1.85769863e-07
      -1.75545921e-07 -2.53995474e-08 0. 0. 0. 0. -1.96570068e-06 0. 0.
      0. 0. 0. 0. 0. 0. 0. 0. 0. 0. 6.04573813e-08 9.21696426e-08
      -4.47473489e-08 -1.86447302e-09 0. 0. 0. 0. 0. 0. 0. 0. 0. 0. 0.
      0. 0. 0. 0. 0. 8.23739921e-09 2.80733765e-08 2.73655900e-07
      7.33411241e-07 1.23231644e-06 1.85169404e-06 3.35174673e-06
      4.42121109e-06 4.94443066e-06 4.77693720e-06 4.31225044e-06
      3.78668574e-06 3.71935971e-06 3.80826805e-06 2.99642329e-06
      2.23371489e-06 1.76479011e-06 7.68199641e-07 3.39736914e-07
      1.04948676e-07 0. 0. 0. 0. 0. 0. 3.24470832e-08 1.12022747e-09
      2.25658070e-07 1.43510448e-07 1.13903218e-06 3.25857513e-06
      6.20946184e-06 1.18040571e-05 2.08283345e-05 3.05669964e-05
      4.54010151e-05 6.26745023e-05 7.89274345e-05 8.90319716e-05
      9.51685433e-05 9.18105507e-05 8.11243590e-05 6.25108732e-05
      3.90399800e-05 2.16791068e-05 1.02427157e-05 3.17921331e-06
      1.05065271e-06 1.99778398e-07 0. 0. 0. 0. 6.47796909e-08
      1.20534509e-07 2.00937293e-07 4.40253558e-07 1.72286411e-06
      4.89207741e-06 9.25989025e-06 1.76513713e-05 3.09581992e-05
      4.74230510e-05 7.01669560e-05 1.04663042e-04 1.49713320e-04
      1.87540587e-04 2.09332065e-04 2.14045125e-04 1.95350600e-04
      1.50552471e-04 9.53379276e-05 5.19842615e-05 2.41421258e-05
      9.08835682e-06 3.78317054e-06 5.32823037e-07 8.08930665e-08 0. 0.
      -2.48838283e-09 -1.91411953e-08 3.37471313e-08 -1.99106552e-07
      -5.51236496e-07 -1.61185699e-06 -2.34146432e-06 -2.42614851e-06
      -1.65580101e-08 4.06904428e-06 5.95189385e-06 1.63114273e-05
      4.06086328e-05 7.42699849e-05 1.10199755e-04 1.41216166e-04
      1.50875756e-04 1.36028961e-04 9.53970521e-05 5.38680360e-05
      2.69263164e-05 1.00573679e-05 2.54238739e-06 5.58545651e-07
      -5.98218577e-08 -1.35301235e-07 3.41321993e-08 0. 0.
      1.52233198e-07 -3.63989500e-07 -1.45422518e-06 -5.29357067e-06
      -1.36073631e-05 -2.30638070e-05 -3.19761421e-05 -4.27783270e-05
      -5.30651923e-05 -6.68065622e-05 -6.55684707e-05 -6.48366404e-05
      -5.43386886e-05 -4.33861023e-05 -3.81105492e-05 -4.71010208e-05
      -5.96514401e-05 -7.04329650e-05 -7.02797624e-05 -5.62065579e-05
      -3.82792205e-05 -2.27881028e-05 -1.06583702e-05 -3.41237092e-06
      -6.10814539e-07 3.25919096e-08 0. -7.28981153e-10 -9.39486782e-08
      -1.42421675e-06 -5.38028007e-06 -1.42706076e-05 -3.02352455e-05
      -4.89839003e-05 -6.91207897e-05 -8.92234966e-05 -1.09498396e-04
      -1.17465090e-04 -1.18559423e-04 -1.31669382e-04 -1.47692583e-04
      -1.75198133e-04 -2.14607920e-04 -2.54021841e-04 -2.69951008e-04
      -2.46224256e-04 -1.98493901e-04 -1.40776130e-04 -8.94176846e-05
      -5.18474117e-05 -2.57764314e-05 -9.05287470e-06 -1.94878658e-06
      -8.93760159e-08 -3.11451309e-09 -9.85027597e-08 -7.47181218e-07
      -3.54984149e-06 -1.17238087e-05 -2.73113528e-05 -5.03015035e-05
      -7.57515081e-05 -1.02430706e-04 -1.28215150e-04 -1.47135419e-04
      -1.46862483e-04 -1.46915074e-04 -1.59887335e-04 -1.94435372e-04
      -2.63630762e-04 -3.49100301e-04 -4.12418973e-04 -4.23188350e-04
      -3.74155585e-04 -2.89213203e-04 -2.03264965e-04 -1.28994099e-04
      -7.35770445e-05 -3.57821264e-05 -1.38725081e-05 -2.57994566e-06
      -1.31392014e-07 -1.93597138e-08 -3.00497561e-07 -2.19669778e-06
      -7.52546794e-06 -1.96445835e-05 -3.95034222e-05 -6.65471962e-05
      -9.52379487e-05 -1.25082908e-04 -1.51553526e-04 -1.63043049e-04
      -1.47749626e-04 -1.29511871e-04 -1.32763846e-04 -1.90950523e-04
      -3.04449990e-04 -4.15531278e-04 -4.85669181e-04 -4.91591985e-04
      -4.29832522e-04 -3.33436212e-04 -2.35431580e-04 -1.48892141e-04
      -8.18313056e-05 -3.93190749e-05 -1.54147638e-05 -2.71087220e-06
      -1.96463006e-07 -4.33102549e-08 -5.17661647e-07 -3.20986010e-06
      -9.90446915e-06 -2.32561288e-05 -4.53500361e-05 -7.30125103e-05
      -1.01853941e-04 -1.30104352e-04 -1.53397588e-04 -1.43384648e-04
      -1.03463193e-04 -5.29903919e-05 -6.18645645e-05 -1.67108810e-04
      -3.14617238e-04 -4.27277089e-04 -4.87422541e-04 -4.84304299e-04
      -4.21432458e-04 -3.25170811e-04 -2.26619944e-04 -1.42200006e-04
      -7.43017590e-05 -3.29764771e-05 -1.18659254e-05 -2.21215510e-06
      -2.43267294e-07 -6.13649220e-08 -7.12945678e-07 -3.25983638e-06
      -9.61831120e-06 -2.28950103e-05 -4.49744766e-05 -7.04155682e-05
      -9.56781369e-05 -1.19609947e-04 -1.26068830e-04 -8.91780583e-05
      -1.82681924e-05 3.80580605e-05 -1.24238595e-05 -1.76788599e-04
      -3.29164410e-04 -4.06231789e-04 -4.35725611e-04 -4.19890013e-04
      -3.57085053e-04 -2.63048219e-04 -1.74507019e-04 -1.04014165e-04
      -5.26454387e-05 -2.08981201e-05 -6.93774155e-06 -1.42358351e-06
      -1.50354424e-07 -4.84090315e-08 -6.28688952e-07 -2.65752260e-06
      -7.67209531e-06 -2.01872790e-05 -4.06108629e-05 -6.27214104e-05
      -8.67349227e-05 -1.00506841e-04 -8.18916160e-05 -2.17853103e-05
      6.13709635e-05 8.49587814e-05 -3.23413988e-05 -2.26884542e-04
      -3.38238693e-04 -3.46626766e-04 -3.41385312e-04 -3.06330796e-04
      -2.36273088e-04 -1.53109373e-04 -8.47525807e-05 -4.64958466e-05
      -2.18648202e-05 -7.82852931e-06 -1.99470151e-06 -7.59064960e-07
      -1.62184355e-09 -2.13084803e-08 -3.74899997e-07 -1.68478164e-06
      -5.63887670e-06 -1.79456165e-05 -3.86682332e-05 -5.87887662e-05
      -7.92152205e-05 -7.80592381e-05 -3.75209529e-05 3.97471595e-05
      1.07458982e-04 6.95684139e-05 -1.06424908e-04 -2.77874933e-04
      -3.03409586e-04 -2.52614380e-04 -2.16280343e-04 -1.63801509e-04
      -8.60036962e-05 -1.34935308e-05 1.96979254e-05 1.80283605e-05
      9.72719499e-06 6.56579277e-06 1.51710094e-06 -5.62269349e-07
      -1.45879815e-08 -5.57205748e-09 -1.64976981e-07 -8.76820138e-07
      -4.13510998e-06 -1.74600882e-05 -4.05024839e-05 -6.12930380e-05
      -7.09949309e-05 -4.53789726e-05 1.37283469e-05 9.10586459e-05
      1.08627522e-04 5.82455687e-06 -1.83185373e-04 -2.69483571e-04
      -2.20097383e-04 -1.39793818e-04 -1.03268212e-04 -4.89267004e-05
      3.31583688e-05 8.90805895e-05 9.87345411e-05 7.20466560e-05
      3.95443130e-05 1.96051878e-05 3.84577106e-06 -7.44586430e-07
      -1.60338303e-07 -1.70199588e-08 -6.88780162e-08 -3.76419536e-07
      -3.37513552e-06 -1.84902201e-05 -4.65462290e-05 -6.46941189e-05
      -5.57164749e-05 -7.47266722e-06 7.18847077e-05 1.18833501e-04
      7.58928218e-05 -6.28381677e-05 -2.13744279e-04 -2.21957365e-04
      -1.49189684e-04 -7.80880655e-05 -7.17551811e-05 -2.00260456e-05
      7.61324991e-05 1.38609001e-04 1.39615950e-04 1.03682090e-04
      5.67076422e-05 2.68213207e-05 6.69492783e-06 -9.90146873e-07
      -3.06084402e-08 -6.54588472e-09 -2.37934881e-08 -2.83489214e-07
      -3.78257391e-06 -2.08669098e-05 -5.51767043e-05 -6.69398869e-05
      -3.68903311e-05 3.62042520e-05 1.21791978e-04 1.33408961e-04
      4.49969230e-05 -9.57803859e-05 -1.93117346e-04 -1.82061121e-04
      -1.41575307e-04 -1.23094826e-04 -1.27794483e-04 -4.89446829e-05
      7.24697165e-05 1.54063688e-04 1.59905496e-04 1.13705755e-04
      6.10382922e-05 2.66469851e-05 7.56877489e-06 -1.41104169e-06
      -1.46907780e-07 -5.55986368e-09 -2.25291483e-08 -4.01714715e-07
      -4.28875728e-06 -2.47999724e-05 -6.44676547e-05 -7.11300963e-05
      -1.67134604e-05 8.30535646e-05 1.74365181e-04 1.69656458e-04
      6.59786601e-05 -6.43364765e-05 -1.44524602e-04 -1.79916315e-04
      -1.99879243e-04 -2.18138346e-04 -1.83677781e-04 -5.28609089e-05
      9.22026957e-05 1.67271108e-04 1.54188747e-04 1.03824554e-04
      4.89700906e-05 1.95901011e-05 4.17630872e-06 -1.97551162e-06
      -1.93230136e-07 0. -3.53130609e-08 -6.24454515e-07 -5.93639697e-06
      -3.22726919e-05 -7.54043285e-05 -7.91417842e-05 -7.40144151e-06
      1.20970180e-04 2.32344653e-04 2.48228869e-04 1.52555658e-04
      2.05696961e-05 -9.30856186e-05 -1.81714102e-04 -2.33301107e-04
      -2.26400356e-04 -1.28469823e-04 2.67920968e-05 1.46228034e-04
      1.71529886e-04 1.30720466e-04 7.22795885e-05 2.72754678e-05
      4.24541577e-06 -2.02870410e-06 -2.07404150e-06 -1.44944678e-07
      -1.29099531e-08 -2.39727278e-08 -8.84578299e-07 -8.54217615e-06
      -3.93998234e-05 -8.72439705e-05 -9.74302311e-05 -2.63930560e-05
      1.12544971e-04 2.54595099e-04 3.13920667e-04 2.50921585e-04
      1.12388327e-04 -3.62480205e-05 -1.35176611e-04 -1.55303249e-04
      -9.20521488e-05 2.41133839e-05 1.31844325e-04 1.67043647e-04
      1.32897665e-04 7.70155166e-05 2.45360643e-05 -1.82304746e-06
      -1.03686934e-05 -5.66683730e-06 -1.46248669e-06 -1.87362019e-07
      -1.62363978e-09 -6.45858123e-08 -1.33565902e-06 -1.07616615e-05
      -4.33278947e-05 -9.50709727e-05 -1.24706552e-04 -8.49262215e-05
      3.29577888e-05 1.83770855e-04 3.00702843e-04 3.00010288e-04
      1.98086127e-04 6.69409201e-05 -6.53273673e-06 1.04228420e-05
      7.90607155e-05 1.36294024e-04 1.43695666e-04 1.05151463e-04
      5.30311481e-05 5.55779661e-06 -1.96339424e-05 -2.38413522e-05
      -1.64082321e-05 -7.04897366e-06 -1.36307710e-06 -1.00107286e-07 0.
      -7.59226921e-08 -1.40982741e-06 -1.10090914e-05 -4.09828499e-05
      -9.25484201e-05 -1.45298167e-04 -1.54683628e-04 -1.01469050e-04
      1.61034695e-05 1.54871464e-04 2.32260994e-04 2.19351205e-04
      1.56879876e-04 1.18964708e-04 1.18471231e-04 1.21614103e-04
      9.37983277e-05 4.53004504e-05 -5.74975320e-06 -3.94017115e-05
      -5.04111231e-05 -4.44368488e-05 -2.88689935e-05 -1.53825640e-05
      -4.78897528e-06 -7.18045669e-07 -1.14566063e-08 -2.64379518e-09
      -6.94021978e-08 -1.09559392e-06 -8.28665452e-06 -3.10256983e-05
      -7.58532624e-05 -1.37923722e-04 -1.91935527e-04 -2.14693660e-04
      -1.84540564e-04 -9.89961554e-05 -4.80013477e-06 5.08458397e-05
      5.56135892e-05 3.16734149e-05 -2.01662306e-06 -3.95835159e-05
      -7.56110603e-05 -9.92867062e-05 -1.02240861e-04 -8.79861982e-05
      -6.26911133e-05 -3.90434470e-05 -2.15412620e-05 -9.82706842e-06
      -2.64818846e-06 -2.34879337e-07 -2.76650147e-09 -2.56117660e-09
      -4.61370009e-09 -7.24031224e-07 -4.52793938e-06 -1.70677031e-05
      -4.72142237e-05 -9.97653042e-05 -1.66410973e-04 -2.40013047e-04
      -3.02218396e-04 -3.32702359e-04 -3.36107216e-04 -3.20259278e-04
      -3.08218005e-04 -3.01949593e-04 -2.86314695e-04 -2.59491440e-04
      -2.18047600e-04 -1.67873048e-04 -1.19689816e-04 -7.81179042e-05
      -4.62072057e-05 -2.55460291e-05 -1.32533078e-05 -5.15770580e-06
      -1.16866840e-06 -3.20117977e-08 -5.10739051e-09 0. 0.
      -2.40765871e-07 -1.66987263e-06 -6.93670381e-06 -2.04215885e-05
      -4.88384467e-05 -9.68536697e-05 -1.62483295e-04 -2.39896195e-04
      -3.19281127e-04 -3.84652783e-04 -4.19823336e-04 -4.21270932e-04
      -3.94886505e-04 -3.37397709e-04 -2.64258910e-04 -1.91726373e-04
      -1.26616957e-04 -8.00503112e-05 -4.78855582e-05 -2.59734843e-05
      -1.33338435e-05 -6.36261029e-06 -2.10273924e-06 -3.78685684e-07
      -5.61955886e-08 0. 0. 0. -6.97001710e-08 -4.65442042e-07
      -2.18893138e-06 -6.65133894e-06 -1.70705662e-05 -3.63143226e-05
      -6.57511991e-05 -1.05807172e-04 -1.50373045e-04 -1.88040081e-04
      -2.10715327e-04 -2.15498658e-04 -2.02094045e-04 -1.72494721e-04
      -1.36364077e-04 -1.01312922e-04 -6.84170445e-05 -4.31147637e-05
      -2.49057339e-05 -1.32690857e-05 -6.43046997e-06 -2.79620508e-06
      -7.25529446e-07 -1.14431167e-07 -1.41951029e-08 0. 0. 0.
      -6.88602375e-09 -9.14495999e-08 -6.50939796e-07 -2.22991480e-06
      -6.14531928e-06 -1.34008433e-05 -2.53144117e-05 -4.03456033e-05
      -5.67945535e-05 -6.88207801e-05 -7.65146688e-05 -7.94638690e-05
      -7.50697218e-05 -6.66394772e-05 -5.71415803e-05 -4.52196873e-05
      -3.17299382e-05 -1.95555531e-05 -1.06911093e-05 -5.60370654e-06
      -2.55006125e-06 -9.52176038e-07 -2.05376452e-07 -1.67394578e-08
      -1.21449242e-08 0. 0. 0. 0. -4.83027307e-09 -1.90604268e-07
      -7.96181155e-07 -2.42681904e-06 -5.15352031e-06 -9.93989488e-06
      -1.48752642e-05 -2.03714808e-05 -2.53674098e-05 -2.84164598e-05
      -2.94015736e-05 -2.80214608e-05 -2.42955193e-05 -2.07694393e-05
      -1.64191424e-05 -1.14110062e-05 -6.75553565e-06 -3.67376515e-06
      -1.87611636e-06 -6.35379649e-07 -1.35322267e-07 -3.70616426e-09
      -4.48744908e-09 0. 0. 0. 0. 0. 0. -1.03708651e-08 -7.38729184e-08
      -2.22071648e-07 -4.90229866e-07 -6.58444435e-07 -9.47402384e-07
      -1.71576062e-06 -2.18905029e-06 -2.89501577e-06 -3.43944293e-06
      -4.30104274e-06 -3.91359663e-06 -3.40373663e-06 -2.65638369e-06
      -1.59931426e-06 -6.70534689e-07 -3.67126148e-07 -2.02624520e-07
      -1.99193764e-07 -2.75934013e-08 0. 0. 0. 0. -1.46825096e-06 0. 0.
      0. 0. 0. 0. 0. 0. 0. 0. 0. 0. -1.35021976e-08 -5.09864506e-08
      -2.38377922e-08 -9.93241156e-10 0. 0. 0. 0. 0. 0. 0. 0. 0. 0. 0.
      0. 0. 0. 0. 0. -9.82102510e-10 -3.91619626e-09 -7.32354835e-08
      -1.72120508e-07 -2.77595092e-07 -3.81642280e-07 -6.85552436e-07
      -9.21197795e-07 -1.00219131e-06 -9.27185056e-07 -9.93691629e-07
      -9.48370086e-07 -1.01422563e-06 -7.34642356e-07 -4.16683775e-07
      -3.13961181e-07 -2.25210343e-07 -7.84053995e-08 -4.31408154e-08
      -2.19569039e-08 0. 0. 0. 0. 0. 0. -1.84083604e-09 -4.02350908e-09
      -3.06154213e-08 -2.31777619e-08 -2.67462070e-07 -8.37964251e-07
      -1.48521030e-06 -2.64329628e-06 -4.58655086e-06 -6.45480895e-06
      -8.94760069e-06 -1.12501284e-05 -1.37084598e-05 -1.49222460e-05
      -1.46558768e-05 -1.27410340e-05 -1.02917193e-05 -7.23269932e-06
      -4.07304560e-06 -2.10194617e-06 -1.03645721e-06 -3.29570639e-07
      -1.07018408e-07 -2.01804049e-08 0. 0. 0. 0. -7.08878334e-09
      -2.41655513e-08 -6.10657480e-08 -2.96992852e-07 -9.89965883e-07
      -2.57410557e-06 -5.23389963e-06 -9.85464612e-06 -1.62010765e-05
      -2.34750696e-05 -3.07164191e-05 -3.88153203e-05 -4.61204254e-05
      -4.96588109e-05 -4.76483037e-05 -4.24533573e-05 -3.39889739e-05
      -2.42186670e-05 -1.45693830e-05 -8.04850515e-06 -3.83862425e-06
      -1.58533271e-06 -6.19082357e-07 -9.52009174e-08 -9.43500833e-09 0.
      0. -1.79505755e-09 -1.73078529e-08 5.80577142e-09 -2.59806939e-07
      -1.66632424e-06 -4.38131337e-06 -1.00356419e-05 -1.94391832e-05
      -3.41028608e-05 -5.36769003e-05 -7.78280228e-05 -1.08884604e-04
      -1.41567041e-04 -1.65672085e-04 -1.74355388e-04 -1.65952806e-04
      -1.44886915e-04 -1.15344759e-04 -8.54102618e-05 -5.69071308e-05
      -3.41837585e-05 -1.87881269e-05 -9.13067015e-06 -3.73471698e-06
      -8.87759143e-07 -1.41885565e-07 -1.36335752e-08 0. 0.
      -4.32664073e-08 -2.05995988e-07 -1.37321729e-06 -4.79849678e-06
      -1.26652667e-05 -2.58416767e-05 -4.66805977e-05 -7.71404593e-05
      -1.16420357e-04 -1.65215111e-04 -2.23394469e-04 -2.84324051e-04
      -3.28315073e-04 -3.45920824e-04 -3.34690092e-04 -2.98935978e-04
      -2.45656032e-04 -1.88613543e-04 -1.34284317e-04 -8.71579323e-05
      -5.28621822e-05 -3.02161425e-05 -1.42393856e-05 -4.24676864e-06
      -7.72409408e-07 -3.76524270e-08 0. -1.05029496e-09 3.62876932e-07
      6.46878391e-08 -6.22376774e-07 -2.02641309e-06 -8.32890328e-06
      -2.30843289e-05 -4.53823341e-05 -8.11020509e-05 -1.24586528e-04
      -1.82419215e-04 -2.50768906e-04 -3.25474422e-04 -3.82520433e-04
      -4.08839871e-04 -3.94671311e-04 -3.56123142e-04 -3.04252171e-04
      -2.38828157e-04 -1.77588561e-04 -1.20723897e-04 -7.90337363e-05
      -4.99736161e-05 -2.68292424e-05 -1.01749847e-05 -2.28639442e-06
      -2.16315996e-07 2.06480468e-08 2.74686045e-07 2.38858797e-06
      6.69457859e-06 1.54492955e-05 2.92182522e-05 4.38016687e-05
      5.05510543e-05 4.77054527e-05 3.06228321e-05 -6.49765923e-07
      -4.73122273e-05 -1.00547673e-04 -1.55981543e-04 -1.97310816e-04
      -2.08383688e-04 -1.88758000e-04 -1.60881697e-04 -1.34630667e-04
      -1.06088104e-04 -8.69137584e-05 -7.71959094e-05 -6.45949476e-05
      -4.86227109e-05 -3.24851499e-05 -1.44975784e-05 -3.20121489e-06
      -2.05749373e-07 7.32356753e-08 1.34700156e-06 8.74469606e-06
      2.38555549e-05 4.60507690e-05 8.13322913e-05 1.16943127e-04
      1.51412314e-04 1.66815516e-04 1.64620593e-04 1.45890182e-04
      1.21185381e-04 1.00393161e-04 8.08643308e-05 7.36112779e-05
      7.64293654e-05 8.70711592e-05 8.83218818e-05 7.02391335e-05
      4.59329312e-05 1.16363854e-05 -1.89232815e-05 -3.55210541e-05
      -3.70159760e-05 -2.97668194e-05 -1.50178648e-05 -3.15745046e-06
      -2.10725602e-07 1.34059860e-07 2.17947081e-06 1.40580187e-05
      3.70788548e-05 7.03566038e-05 1.15303192e-04 1.57432267e-04
      1.93174026e-04 2.04960874e-04 1.92931184e-04 1.67439342e-04
      1.55184083e-04 1.56191585e-04 1.56580209e-04 1.54447509e-04
      1.55951871e-04 1.74072047e-04 1.79565279e-04 1.61149961e-04
      1.24979168e-04 6.82313330e-05 1.78160335e-05 -1.63661462e-05
      -2.80307686e-05 -2.29978614e-05 -1.04932933e-05 -2.23300003e-06
      -6.30120667e-08 1.83611803e-07 2.76333185e-06 1.46881348e-05
      3.76981989e-05 7.12602341e-05 1.07238600e-04 1.35823298e-04
      1.48107953e-04 1.31109598e-04 9.31794129e-05 5.73707439e-05
      4.13425223e-05 4.59699913e-05 4.45771329e-05 1.53466171e-05
      1.47561386e-05 7.50879262e-05 1.35861032e-04 1.64335172e-04
      1.46395992e-04 8.69730720e-05 2.73088554e-05 -1.33967314e-05
      -2.63443253e-05 -1.68658735e-05 -5.95299798e-06 -1.37306608e-06
      -6.91308202e-08 1.55400940e-07 2.18109972e-06 1.20238892e-05
      2.85141050e-05 5.26329168e-05 6.92509566e-05 7.55479487e-05
      5.88879084e-05 1.59179217e-05 -4.39523683e-05 -9.30598326e-05
      -1.10648318e-04 -1.07780317e-04 -1.31148772e-04 -1.84925084e-04
      -1.69966923e-04 -5.31576552e-05 7.32374247e-05 1.48092018e-04
      1.35183494e-04 7.92540814e-05 1.24111284e-05 -2.65035942e-05
      -3.40597035e-05 -1.59970987e-05 -3.38390510e-06 -7.84770350e-07
      -4.95776540e-08 1.00587435e-07 1.29198850e-06 6.99411066e-06
      1.69729537e-05 2.98656396e-05 3.05411049e-05 1.12434391e-05
      -2.53686303e-05 -8.87431743e-05 -1.67507707e-04 -2.22048388e-04
      -2.37098488e-04 -2.38093460e-04 -2.88386917e-04 -3.51992348e-04
      -2.97901424e-04 -1.17067713e-04 5.03154042e-05 1.25015926e-04
      1.08044136e-04 4.38412790e-05 -2.06043478e-05 -4.73571054e-05
      -4.29521460e-05 -1.86789130e-05 -1.90877518e-06 -3.28337933e-07
      -1.09058798e-08 -5.71715297e-09 4.03111216e-07 3.51128870e-06
      9.08129095e-06 1.43597963e-05 -5.91459809e-07 -3.88888802e-05
      -9.68245004e-05 -1.76522779e-04 -2.61326204e-04 -3.11841985e-04
      -3.25171917e-04 -3.35197750e-04 -4.19088494e-04 -4.69667488e-04
      -3.53119598e-04 -1.12564354e-04 4.99354283e-05 9.19091617e-05
      6.09141753e-05 -4.59805733e-06 -5.37355154e-05 -6.31281873e-05
      -4.90030325e-05 -2.13749408e-05 -2.29745865e-06 -4.50501830e-07
      -1.07609381e-07 -1.34738123e-08 1.03030573e-07 1.45288072e-06
      4.02574233e-06 2.83855002e-06 -2.45721239e-05 -7.59900649e-05
      -1.46142353e-04 -2.34556093e-04 -3.20428255e-04 -3.64286039e-04
      -3.73906107e-04 -4.04454418e-04 -5.09039150e-04 -5.12659666e-04
      -3.15702113e-04 -5.02081966e-05 6.25446846e-05 6.01024767e-05
      5.89347837e-06 -5.26133335e-05 -7.58207971e-05 -6.87538777e-05
      -4.95068816e-05 -2.25469903e-05 -2.72402372e-06 -4.89208389e-07
      -1.26397985e-08 -7.17606363e-10 -2.62306639e-08 3.35707739e-07
      8.53928839e-07 -6.54913674e-06 -4.38834177e-05 -9.78660246e-05
      -1.69991501e-04 -2.54706538e-04 -3.24051129e-04 -3.59383441e-04
      -3.74050403e-04 -4.23316524e-04 -5.05194592e-04 -4.35985392e-04
      -1.87988757e-04 2.96204889e-05 7.12054170e-05 1.94513996e-05
      -4.74934859e-05 -8.82227687e-05 -8.93886463e-05 -7.29611929e-05
      -4.91338615e-05 -2.18219866e-05 -4.08769984e-06 -7.16130160e-07
      -6.77291041e-08 2.11095550e-08 -2.71283369e-08 -2.28945723e-07
      -8.84750932e-07 -1.27388503e-05 -5.67155694e-05 -1.10892717e-04
      -1.70430139e-04 -2.32803926e-04 -2.80616252e-04 -3.07410664e-04
      -3.28734022e-04 -3.69098358e-04 -3.89948953e-04 -2.61282199e-04
      -3.97362601e-05 7.93274521e-05 4.33547102e-05 -4.36820155e-05
      -1.03755170e-04 -1.24503917e-04 -1.04337872e-04 -7.71867635e-05
      -4.77918074e-05 -2.13356925e-05 -5.44360773e-06 -1.01453691e-06
      -6.93384905e-08 0. 4.69241179e-09 -4.87948114e-07 -2.79787355e-06
      -1.97464706e-05 -6.59570214e-05 -1.19126576e-04 -1.64729732e-04
      -2.00681287e-04 -2.29216297e-04 -2.51444028e-04 -2.67388416e-04
      -2.72790610e-04 -2.22373856e-04 -8.03021030e-05 5.49192009e-05
      6.74706243e-05 -2.59170047e-05 -1.18075623e-04 -1.62972283e-04
      -1.55239890e-04 -1.18850876e-04 -8.08370678e-05 -4.58310715e-05
      -1.91050622e-05 -5.39960138e-06 -8.66511812e-07 -6.90750213e-08
      2.53234429e-08 4.39957848e-09 -6.02134492e-07 -4.93825382e-06
      -2.62620979e-05 -7.42764241e-05 -1.26920466e-04 -1.66641112e-04
      -1.91765415e-04 -2.13884443e-04 -2.32220584e-04 -2.28429810e-04
      -1.82196411e-04 -8.83860193e-05 1.50586720e-05 5.80098640e-05
      -1.09855373e-05 -1.18002201e-04 -1.91292114e-04 -2.04106414e-04
      -1.70164829e-04 -1.23415070e-04 -7.99612026e-05 -4.33426176e-05
      -1.73915378e-05 -4.89030344e-06 -5.44019713e-07 -8.00214224e-08
      -1.40406775e-09 6.92163553e-08 -9.77807531e-07 -7.02441548e-06
      -3.00558022e-05 -7.81767521e-05 -1.33325331e-04 -1.78618167e-04
      -2.10845727e-04 -2.35022279e-04 -2.42801994e-04 -2.10041209e-04
      -1.25778752e-04 -3.69401969e-05 1.49618363e-05 -1.77628481e-05
      -1.14191214e-04 -2.00815746e-04 -2.36048247e-04 -2.15158347e-04
      -1.66432568e-04 -1.15801631e-04 -7.01972313e-05 -3.53842624e-05
      -1.34060110e-05 -3.91757612e-06 -6.08937626e-07 -3.80638170e-08 0.
      -5.59291280e-08 -1.29587431e-06 -8.02755949e-06 -2.96138205e-05
      -7.27397710e-05 -1.32447924e-04 -1.88484832e-04 -2.33750601e-04
      -2.59825581e-04 -2.50325073e-04 -1.94789318e-04 -1.08833265e-04
      -5.11058570e-05 -5.20703034e-05 -1.14498216e-04 -1.89889077e-04
      -2.36879379e-04 -2.38239954e-04 -1.97812522e-04 -1.43363417e-04
      -9.23629777e-05 -5.17326516e-05 -2.49051209e-05 -9.58171040e-06
      -2.50096400e-06 -4.25286970e-07 -1.24556943e-08 -3.15065862e-09
      -6.30694217e-08 -1.10050769e-06 -6.69206793e-06 -2.26495122e-05
      -5.73565594e-05 -1.12613743e-04 -1.74162822e-04 -2.25499447e-04
      -2.47260032e-04 -2.29019046e-04 -1.68877828e-04 -1.09734632e-04
      -9.54677671e-05 -1.22473648e-04 -1.72090615e-04 -2.09121092e-04
      -2.20171001e-04 -1.98558831e-04 -1.55048299e-04 -1.04797968e-04
      -6.23616143e-05 -3.27671514e-05 -1.57491431e-05 -5.94275798e-06
      -1.38148278e-06 -2.27649537e-07 -1.24665200e-09 -3.05220182e-09
      -5.72020653e-09 -7.87555507e-07 -3.99638111e-06 -1.28172978e-05
      -3.36446865e-05 -7.34349960e-05 -1.21153913e-04 -1.62059776e-04
      -1.78190865e-04 -1.62695040e-04 -1.25502178e-04 -1.00651851e-04
      -1.07179469e-04 -1.32285510e-04 -1.57008239e-04 -1.68522805e-04
      -1.62650424e-04 -1.38069823e-04 -1.01728896e-04 -6.56586999e-05
      -3.74217670e-05 -1.91426170e-05 -9.38609810e-06 -3.15709781e-06
      -6.43157591e-07 -6.35792858e-08 -2.30151231e-09 0. 0.
      -3.05685404e-07 -1.59124647e-06 -3.63413642e-06 -1.01543519e-05
      -2.42275182e-05 -4.05306673e-05 -5.42970884e-05 -5.50766817e-05
      -4.34370413e-05 -3.40540319e-05 -3.78780242e-05 -5.30206016e-05
      -7.08341468e-05 -8.29691417e-05 -8.78340797e-05 -8.30181816e-05
      -7.26617218e-05 -5.47595700e-05 -3.54504991e-05 -2.00924005e-05
      -1.02407776e-05 -5.04494119e-06 -1.32302932e-06 -2.12839652e-07
      -4.44673063e-08 0. 0. 0. -2.98640366e-08 -4.43483579e-08
      1.94668132e-06 5.82703342e-06 1.45907507e-05 3.38591053e-05
      6.03290246e-05 9.00725863e-05 1.18406715e-04 1.26070488e-04
      1.17885822e-04 9.90636836e-05 7.27963852e-05 4.65224657e-05
